,gender,race,X,score,ranking
1310,-14.847777777777777,-75.07222222222222,-821.9566666666667,-9.10023047279411,498
194,-17.54888888888889,-89.7911111111111,-834.5233333333333,-9.10023047279411,497
1385,-15.420000000000002,-79.2211111111111,-828.181111111111,-9.100060296231922,495
1912,-16.113333333333333,-78.97666666666666,-815.0633333333333,-9.10023047279411,496
1819,-13.055555555555557,-78.24222222222221,-768.4388888888889,-9.098022329202093,490
1240,27.85222222222222,-63.77555555555555,-865.1366666666668,-9.123396825988674,499
1911,-10.573333333333334,133.84555555555556,-969.5722222222223,-8.819685249650972,486
1615,-8.321111111111112,135.52555555555557,-1012.2555555555555,-8.8217232166808,489
376,-13.317777777777778,-71.89222222222222,-814.8555555555556,-9.098022633254818,493
414,-7.793333333333333,137.52666666666667,-975.3988888888889,-8.819685249650972,485
1120,-66.17333333333333,-200.92999999999998,-364.9511111111111,-8.807238477733717,413
1381,-8.561111111111112,138.37333333333333,-973.7277777777778,-8.819685553703696,488
1897,-13.945555555555556,-87.99666666666667,-813.7344444444444,-9.098022329202093,491
1274,-14.16,-73.34222222222222,-773.4788888888888,-9.098022633254818,494
420,32.49666666666666,-76.34,-903.9966666666667,-9.125434888917264,500
344,-8.248888888888889,148.32555555555558,-997.1177777777777,-8.819685553703696,487
382,-64.14333333333333,-186.4911111111111,-321.92,-8.807233667378638,412
1646,-31.141111111111112,316.0422222222222,-225.61666666666667,-8.528928129749419,239
342,-73.37444444444445,-198.6677777777778,-349.77333333333337,-8.807253114063451,416
192,-31.986666666666665,325.4488888888889,-272.26666666666665,-8.528917340519106,238
968,-16.014444444444447,-76.85,-801.9955555555556,-9.098022633254818,492
1965,103.21000000000001,-128.67888888888888,-417.3988888888889,-8.806457399031697,362
1134,1.8788888888888877,315.9277777777778,-304.6288888888889,-8.528947149297226,249
941,-36.49333333333333,343.40777777777777,-297.47333333333336,-8.528938475283356,242
51,-32.675555555555555,327.8988888888889,-278.09555555555556,-8.528932218676822,241
1713,-31.175555555555558,320.6066666666667,-246.64999999999998,-8.528932218676822,240
1623,-69.48888888888888,-194.90555555555554,-372.23,-8.807248675469204,415
1425,-71.24222222222222,-179.55777777777777,-319.92111111111114,-8.807245852992134,414
1544,-50.82777777777778,-202.17,-381.8666666666667,-8.807254785156335,421
1518,-51.24444444444444,-189.33111111111108,-387.5988888888889,-8.807256220358184,423
383,-53.20111111111112,-203.2111111111111,-418.5966666666667,-8.807256220358184,422
987,-50.07555555555555,-181.3211111111111,-405.31444444444446,-8.807253127030094,418
1905,-51.51111111111111,-179.9922222222222,-360.12777777777774,-8.807253127030094,417
532,-52.30444444444445,-191.5011111111111,-412.32,-8.807254785156335,419
1666,4.792222222222222,325.9277777777778,-284.5522222222222,-8.528942976915168,243
1691,-51.26777777777778,-203.2111111111111,-396.2588888888889,-8.807254785156335,420
1621,-1.3655555555555594,243.84222222222223,-383.6377777777777,-8.529225706794326,289
1558,-52.968888888888884,-189.09888888888887,-444.7588888888889,-8.807259123187768,428
874,-72.96,-206.99222222222224,-538.7855555555556,-8.807261069320733,465
1614,-54.79333333333334,-205.52666666666667,-421.9433333333333,-8.807259123187768,427
590,-55.6,-205.52666666666667,-438.31888888888886,-8.807259123187768,425
163,-55.76444444444444,-198.94555555555556,-438.31888888888886,-8.807259123187768,426
1659,-2.320000000000002,322.82,-287.7966666666667,-8.528948102598237,251
802,0.06444444444444564,336.8155555555556,-328.99333333333334,-8.528946013398714,247
630,0.4755555555555535,316.9088888888889,-321.5,-8.52894807216812,250
1229,-53.61555555555556,-206.37666666666667,-434.78555555555556,-8.80725980855341,429
59,-78.61555555555555,-199.94777777777776,-522.3444444444444,-8.807261072519454,470
1568,-3.23111111111111,336.1888888888889,-342.8133333333334,-8.52894888298037,253
1511,-68.55111111111111,-201.38555555555556,-517.7955555555556,-8.807261069320733,456
1697,-69.06444444444445,-188.40666666666667,-506.76,-8.807261052008023,451
570,2.531111111111109,336.1911111111111,-303.52666666666664,-8.528942976915168,244
1719,-0.0855555555555565,322.82,-309.01666666666665,-8.528948102598237,252
1493,-68.96111111111111,-189.85666666666668,-470.3655555555556,-8.807261052008023,452
1739,-72.82222222222222,-185.33777777777777,-508.62555555555554,-8.807261069320733,463
1272,-68.55111111111111,-197.50666666666666,-499.9844444444444,-8.807261069320733,464
1794,2.836666666666666,320.8666666666667,-287.6455555555556,-8.528944651426402,246
210,-79.42222222222222,-216.19777777777776,-561.6788888888889,-8.807261072519454,468
730,-6.171111111111111,324.3677777777778,-322.8066666666667,-8.528950127513301,259
1550,-68.99111111111111,-206.99222222222224,-527.5433333333333,-8.807261069320733,460
591,56.1888888888889,259.17,-217.1566666666667,-8.525099464051987,223
613,-6.08,323.8544444444444,-364.00666666666666,-8.528950127513301,258
1919,-15.734444444444446,330.90555555555557,-440.82,-8.528950597464997,284
1640,-54.148888888888884,-186.1011111111111,-444.93444444444447,-8.80725980855341,430
1609,-18.53,326.9222222222222,-410.65999999999997,-8.528950597464997,286
1198,0.5811111111111114,327.4888888888889,-333.4466666666666,-8.528947149297226,248
1359,-70.35111111111111,-195.11111111111111,-517.7955555555556,-8.807261069320733,461
579,-51.80222222222223,-204.43555555555557,-436.74222222222227,-8.80725829792031,424
416,-61.126666666666665,-206.72555555555553,-470.3466666666667,-8.807260765304925,435
78,-80.42,-208.27333333333334,-567.9455555555555,-8.807261089514006,473
701,2.0988888888888884,327.6411111111111,-324.0155555555556,-8.528944651426402,245
128,-56.72444444444444,-182.4088888888889,-450.1788888888889,-8.807260460820252,432
527,-72.15333333333334,-206.99222222222224,-522.2277777777778,-8.807261069320733,459
599,-78.68111111111111,-208.27333333333334,-519.5633333333333,-8.807261089514006,480
1567,-56.81666666666666,-193.3611111111111,-439.5388888888889,-8.807260410957996,431
949,-68.55111111111111,-206.0088888888889,-522.9177777777778,-8.807261063346338,455
426,-80.42,-208.27333333333334,-567.9455555555555,-8.807261089514006,475
1652,-9.69888888888889,322.4711111111111,-384.7188888888889,-8.52895032574193,276
1460,-15.512222222222224,324.9488888888889,-389.84555555555556,-8.528950597464997,282
1378,-2.0566666666666666,322.3688888888889,-349.3022222222222,-8.528950127513301,260
271,-83.21555555555555,-200.18,-541.9677777777778,-8.807261089514006,476
1556,-64.89444444444445,-192.85555555555555,-455.4655555555555,-8.807260924901382,446
1083,-67.60444444444444,-194.91888888888886,-512.3455555555555,-8.807261004019798,449
1407,-70.02666666666667,-191.89999999999998,-538.7855555555556,-8.807261069320733,457
244,-68.55111111111111,-198.54777777777778,-513.941111111111,-8.807261069320733,462
1813,-71.71333333333334,-190.46555555555554,-490.75666666666666,-8.807261069320733,458
1293,-66.96444444444444,-189.32666666666665,-504.5422222222222,-8.807261059646812,454
808,-64.87333333333333,-189.94555555555556,-458.5666666666667,-8.807260844684931,443
1091,-78.25777777777778,-215.4288888888889,-576.7477777777779,-8.80726107605124,472
1193,-67.14,-191.52666666666667,-459.20888888888885,-8.807260924901382,445
572,-66.1411111111111,-191.94333333333333,-464.75666666666666,-8.807260924901382,444
1391,-77.98666666666668,-200.14999999999998,-544.1866666666666,-8.807261072519454,467
1551,-79.06,-209.31444444444443,-567.9455555555555,-8.807261089514006,479
464,-12.342222222222222,357.1355555555556,-395.60333333333335,-8.52895032574193,274
1440,-14.765555555555556,347.67555555555555,-375.21888888888884,-8.52895032574193,273
1433,-35.92,-187.6677777777778,-334.2077777777778,-8.807148367645135,388
1860,147.4488888888889,-143.79555555555555,-469.54555555555555,-8.806459504456008,366
1673,-11.12777777777778,321.3822222222222,-346.89666666666665,-8.528950297139929,267
1987,-17.73111111111111,364.75111111111113,-408.34000000000003,-8.52895032574193,281
1530,-68.57777777777778,-195.9188888888889,-516.5055555555556,-8.807261031723717,450
303,-78.78666666666668,-199.9611111111111,-572.0922222222223,-8.80726107605124,471
862,-35.22222222222222,-171.62,-321.19444444444446,-8.807148371968086,405
1474,-83.21555555555555,-200.18,-541.9677777777778,-8.807261089514006,477
196,-62.82666666666667,-193.45000000000002,-456.39,-8.807260765304925,437
99,-63.91555555555556,-207.46777777777777,-497.00777777777773,-8.807260807336618,441
585,-36.54222222222222,-171.47222222222223,-320.0833333333333,-8.807148371968086,407
583,-7.747777777777777,325.6377777777778,-390.78444444444443,-8.528950254552157,266
964,-84.25333333333333,-206.7422222222222,-534.48,-8.807261089514006,478
787,-80.78222222222223,-200.14999999999998,-531.151111111111,-8.807261072519454,469
1818,-72.91777777777777,-189.32666666666665,-486.1933333333333,-8.807261059646812,453
1137,-10.232222222222223,327.84777777777776,-391.6777777777778,-8.52895032574193,275
1454,-17.73111111111111,364.75111111111113,-408.34000000000003,-8.52895032574193,270
1838,-14.672222222222224,346.87222222222226,-424.37777777777774,-8.52895032574193,269
486,-80.90444444444445,-200.18,-532.4655555555555,-8.807261089514006,474
220,-63.81333333333333,-185.70555555555555,-496.4477777777778,-8.807260807336618,440
757,-34.48444444444444,-178.1822222222222,-334.2077777777778,-8.807148367645135,385
607,-40.42666666666666,-182.3088888888889,-318.27,-8.807148417328317,408
620,-76.77111111111111,-201.47888888888886,-513.2966666666666,-8.807261072519454,466
413,-36.657777777777774,-170.34777777777776,-299.0088888888889,-8.807148371968086,401
534,-34.181111111111115,-176.45666666666665,-277.4188888888889,-8.807148323657875,383
1350,32.32555555555555,244.95333333333332,-425.7555555555556,-8.529229004862874,292
123,-66.36777777777777,-183.67666666666668,-447.2355555555556,-8.807260765304925,439
1080,-36.01888888888889,-170.21555555555557,-303.43444444444447,-8.807148371968086,397
266,13.496666666666668,302.35555555555555,-275.15333333333336,-8.528837022818584,236
1728,-62.66888888888889,-200.79999999999998,-456.7411111111111,-8.807260807336618,442
462,-38.437777777777775,-187.17666666666668,-357.4977777777778,-8.807148417328317,410
298,-7.3744444444444435,324.7455555555556,-347.0177777777777,-8.528950212520463,261
1357,-7.8277777777777775,338.1611111111111,-353.8422222222222,-8.528950212520463,262
1449,-5.884444444444442,340.99,-361.41555555555556,-8.528949907139692,254
526,-14.672222222222224,364.99888888888887,-417.56555555555553,-8.52895032574193,279
1737,106.84222222222222,-141.0822222222222,-436.11,-8.806459520773132,367
1624,-20.291111111111114,338.45444444444445,-423.02666666666664,-8.528950597464997,283
1041,-37.37888888888889,-182.98888888888888,-336.3966666666667,-8.807148371968086,403
1100,-6.567777777777777,338.02777777777777,-367.7988888888889,-8.528950212520463,264
350,-13.761111111111111,354.0,-398.9033333333333,-8.52895032574193,280
650,-0.7388888888888889,327.5111111111111,-361.41555555555556,-8.528949907139692,255
611,-14.811111111111112,344.90000000000003,-390.00222222222226,-8.52895032574193,271
1054,-61.126666666666665,-205.68444444444444,-456.39,-8.807260765304925,436
1852,-18.53,344.52444444444444,-440.29999999999995,-8.528950597464997,285
218,-34.181111111111115,-181.4,-287.33000000000004,-8.807148323657875,382
986,-67.60444444444444,-192.92555555555552,-515.3033333333334,-8.807260989589295,448
1423,-38.0,-187.54111111111112,-336.3544444444445,-8.807148371968086,406
1185,-42.760000000000005,-197.71444444444444,-358.45222222222225,-8.807151430376626,411
1541,-35.27333333333333,-176.91,-332.05555555555554,-8.807148367645135,387
1593,-36.657777777777774,-171.62,-291.32222222222225,-8.807148371968086,399
1930,116.97444444444444,-127.97444444444443,-408.5533333333333,-8.806459263799702,363
1932,-37.46,-170.34777777777776,-289.13444444444445,-8.807148371968086,404
1013,-58.56777777777778,-193.4933333333333,-435.78222222222223,-8.807260619231464,433
44,-35.324444444444445,-178.1822222222222,-289.13444444444445,-8.807148371968086,393
30,-37.46,-182.85666666666668,-305.45222222222225,-8.807148371968086,398
45,-35.76444444444444,-192.63000000000002,-328.62111111111113,-8.807148371968086,402
1178,-38.531111111111116,-171.54444444444445,-312.2988888888889,-8.807148371968086,400
1245,-12.342222222222222,354.4877777777778,-395.09888888888884,-8.52895032574193,277
1107,-19.824444444444445,-166.75555555555556,-158.9588888888889,-8.806173669150997,343
1803,-68.94,-201.3,-503.6255555555556,-8.807260924901382,447
1284,-12.342222222222222,351.6588888888889,-375.21888888888884,-8.52895032574193,278
1873,-21.156666666666666,-171.85222222222222,-191.17888888888888,-8.806173669150997,344
361,12.50888888888889,240.82222222222225,-407.9911111111111,-8.529228765659639,291
23,-65.00777777777778,-190.67777777777775,-436.8266666666667,-8.807260765304925,438
247,-19.6,-171.30666666666667,-178.92222222222222,-8.806173568303214,342
1432,111.0988888888889,-130.99444444444444,-427.49666666666667,-8.80645971164135,369
275,-4.717777777777778,346.09444444444443,-365.0622222222222,-8.528949984519743,257
32,8.21333333333333,316.1455555555556,-274.29555555555555,-8.528837022818584,232
759,-18.299999999999997,-150.26777777777778,-169.23666666666668,-8.806173669150997,347
1664,-37.403333333333336,-176.70555555555555,-288.06111111111113,-8.807148371968086,394
141,51.218888888888884,-138.65222222222224,-270.5577777777778,-8.805379439789986,341
1464,-9.748888888888889,327.76444444444445,-366.43555555555554,-8.528950212520463,263
381,-25.98888888888889,-169.11111111111111,-199.5211111111111,-8.806174120024576,349
1829,-8.71,321.4877777777778,-384.70000000000005,-8.52895032574193,272
1658,-32.20222222222222,-176.63555555555556,-288.2977777777778,-8.807148323657875,384
819,-23.015555555555558,-169.11111111111111,-167.0211111111111,-8.806174120024576,351
1536,-36.59666666666667,-178.03444444444443,-288.06111111111113,-8.807148371968086,396
270,-23.193333333333335,-160.66666666666666,-199.5211111111111,-8.806174120024576,350
482,-35.57888888888889,-175.4488888888889,-303.43444444444447,-8.807148371968086,395
654,108.96333333333334,-146.78222222222223,-436.11,-8.806459520773132,368
1957,-40.86666666666666,-177.07555555555555,-318.27,-8.807148417328317,409
1922,-11.625555555555556,338.02777777777777,-382.8755555555555,-8.528950212520463,265
1502,-56.66444444444445,-185.89,-458.9,-8.807260619231464,434
198,-4.814444444444442,330.7266666666667,-361.41555555555556,-8.528949907139692,256
115,12.84333333333333,320.2344444444445,-251.29999999999998,-8.528837018495633,228
618,13.496666666666668,307.6122222222222,-278.22222222222223,-8.528837022818584,233
1179,39.85666666666667,-142.29444444444445,-212.29222222222222,-8.805379439789986,340
588,-36.657777777777774,-171.62,-291.32222222222225,-8.807148371968086,389
978,35.632222222222225,241.7111111111111,-437.9977777777778,-8.529229004862874,293
507,-28.14,325.90000000000003,-194.49666666666667,-8.528719322416947,227
281,79.54222222222222,-134.38888888888889,-376.98555555555555,-8.806350837369381,360
1754,17.696666666666673,232.5311111111111,-370.1344444444444,-8.529228555681579,290
478,-11.693333333333335,337.46555555555557,-353.8911111111111,-8.528950297139929,268
237,-12.873333333333333,287.82666666666665,-181.50444444444446,-8.527860235953547,224
535,-23.79222222222222,-173.80444444444444,-205.5211111111111,-8.806174004928085,348
1893,123.20555555555556,-124.55444444444444,-411.6044444444444,-8.806459452519523,365
300,-33.37444444444445,-192.21444444444447,-317.37333333333333,-8.807148323657875,380
824,-35.04777777777778,-184.03,-343.9855555555556,-8.807148371968086,390
1833,-53.06666666666667,-176.7922222222222,-274.0177777777778,-8.806924184034392,373
741,-19.91,224.2377777777778,-327.8911111111111,-8.529118657996591,287
438,9.717777777777778,298.3722222222222,-224.68111111111114,-8.528837022818584,234
1699,-54.851111111111116,-191.5111111111111,-264.37666666666667,-8.806924184034392,372
1435,12.84333333333333,302.35555555555555,-221.36555555555555,-8.528837018495633,230
1612,23.30777777777778,241.61444444444442,-188.72444444444443,-8.528145952929298,225
1788,-34.751111111111115,307.68444444444447,-138.2188888888889,-8.522424406991242,219
1532,-35.86888888888889,-171.62,-285.81888888888886,-8.807148367645135,386
331,-35.324444444444445,-191.5888888888889,-314.49111111111114,-8.807148371968086,392
1118,-37.843333333333334,-187.52,-334.1377777777778,-8.807148371968086,391
1465,-32.25888888888889,-177.9122222222222,-278.36333333333334,-8.807148323657875,381
1938,107.14555555555555,-144.19222222222223,-425.43444444444447,-8.806459418915363,364
1731,-40.19666666666667,-198.93777777777777,-303.4288888888889,-8.807032303036157,377
1132,-33.13333333333333,308.5411111111111,-158.03444444444443,-8.522424959373733,221
519,-127.33777777777779,-270.5811111111111,-482.86111111111114,-8.811107939283456,482
712,76.86666666666666,-139.87111111111113,-360.4922222222222,-8.806350837369381,361
1510,-33.492222222222225,325.23333333333335,-168.87666666666667,-8.522424942404507,220
1471,-21.07111111111111,-171.85222222222222,-200.34444444444443,-8.806173669150997,345
1831,-19.660000000000004,-156.82999999999998,-200.34444444444443,-8.806173669150997,346
1729,-56.483333333333334,-184.55666666666664,-247.55999999999997,-8.806926457320431,375
1990,-27.577777777777776,-150.37,-88.96111111111111,-8.803932899487167,333
494,-38.75111111111111,-184.17555555555555,-303.1788888888889,-8.807032303036157,376
233,-27.577777777777776,-150.37,-88.96111111111111,-8.803932899487167,332
120,-25.42888888888889,321.28333333333336,-188.9922222222222,-8.528718970686489,226
29,-51.599999999999994,-175.66222222222223,-221.27444444444444,-8.806606735145694,370
1273,11.755555555555556,302.0755555555556,-224.0122222222222,-8.528837022818584,231
1289,95.51888888888888,-166.51999999999998,-221.54666666666668,-8.751609085459622,329
765,-28.554444444444446,-177.23333333333335,-49.391111111111115,-8.7496553930277,325
1676,-25.773333333333333,-162.60888888888888,-99.1488888888889,-8.803932899487167,334
453,12.141111111111112,312.61888888888893,-239.07111111111112,-8.528837022818584,235
366,-25.492222222222225,-174.54666666666668,-152.5277777777778,-8.803937189956141,336
1814,-23.213333333333335,-191.10444444444445,-56.19,-8.676259496284095,322
1335,-51.635555555555555,-181.69444444444443,-267.57222222222225,-8.80692415576035,371
886,-25.854444444444447,275.8022222222222,-121.92222222222222,-8.52211214830877,215
1006,-32.46111111111111,307.89,-145.48777777777778,-8.522424970678548,222
1537,-25.78666666666667,-151.82666666666668,-126.82,-8.803934095225495,335
398,-127.99111111111111,-261.63,-437.11555555555555,-8.808816260228207,481
445,-25.773333333333333,-172.09444444444443,-129.50333333333333,-8.803932899487167,331
581,14.234444444444444,303.62888888888887,-258.6711111111111,-8.528837018495633,229
259,-33.88666666666667,327.12666666666667,-165.64444444444445,-8.52210752178985,208
938,-20.412222222222223,-191.07222222222222,-22.816666666666663,-8.676259496284095,321
834,36.14333333333333,271.5966666666667,-118.07,-8.517954299429551,203
450,-53.50888888888889,-205.53555555555553,-154.3411111111111,-8.806197805052225,355
297,-39.30777777777778,-183.88777777777779,-268.87333333333333,-8.807032303036157,378
67,8.594444444444443,305.42333333333335,-298.64,-8.5288377381375,237
1497,-32.68555555555555,277.0422222222222,-18.01777777777778,-8.453596632528038,191
1741,-30.55777777777778,305.33222222222224,-116.31666666666666,-8.52210788595607,210
637,-15.319999999999997,220.41000000000003,-353.4555555555556,-8.529118657996591,288
692,-25.82888888888889,287.54777777777775,-121.57888888888888,-8.522109053578124,212
1233,-58.24444444444445,-178.74555555555554,-250.49444444444444,-8.806926457320431,374
1654,-25.492222222222225,-160.87555555555554,-111.94555555555556,-8.803937189956141,338
785,-20.223333333333336,-188.70222222222222,-39.06111111111111,-8.676259496284095,323
1546,-26.752222222222223,286.2,-130.87333333333333,-8.52210788595607,211
1105,-50.098888888888894,-197.09111111111108,-129.8677777777778,-8.806197805052225,356
602,-26.384444444444448,272.51888888888885,-108.39222222222222,-8.52211214830877,214
832,-27.264444444444443,287.54777777777775,-139.72444444444443,-8.522109053578124,213
930,-53.28333333333333,-197.76666666666662,-130.3488888888889,-8.806200215173341,358
1874,-36.19,285.96444444444444,6.874444444444446,-8.45359958329422,192
990,-51.388888888888886,-188.48444444444442,-161.35555555555555,-8.806197805052225,352
1103,-41.63888888888889,-198.61111111111111,-308.5211111111111,-8.807032475140339,379
1825,-26.285555555555554,272.85777777777776,-91.44666666666667,-8.52210788595607,209
974,-50.27333333333333,-187.15555555555554,-120.23888888888888,-8.806197805052225,353
1323,-36.41555555555556,-180.0688888888889,-76.74111111111111,-8.749658343793882,326
1884,-52.70222222222222,-183.2511111111111,-105.9811111111111,-8.806197805052225,354
544,-42.27111111111111,286.8388888888889,-13.656666666666666,-8.459935435436273,196
582,-29.607777777777777,290.33,-150.48888888888888,-8.522113694570798,216
1916,62.656666666666666,290.3055555555556,5.9977777777777845,-8.311437317096775,163
1978,-28.80111111111111,283.90333333333336,-97.12333333333333,-8.522113694570798,217
485,-131.54888888888888,-289.38,-482.86111111111114,-8.811107939283456,483
261,-44.852222222222224,189.5477777777778,167.01777777777778,-8.34692570910912,174
433,83.66555555555556,-159.04444444444445,-301.17333333333335,-8.806240171390371,359
70,-124.74777777777778,-278.52555555555557,-454.68333333333334,-8.811137810181702,484
479,-38.57666666666667,330.12666666666667,-8.370000000000005,-8.45359146947419,187
1543,-20.904444444444444,-171.06111111111107,-16.77444444444444,-8.635844308815988,313
614,41.53333333333333,266.4266666666667,-119.49666666666667,-8.517956512241268,204
1182,-21.993333333333332,-182.95111111111112,-25.961111111111112,-8.635848381788012,315
743,-35.62222222222222,-111.55222222222221,342.98555555555555,-8.467821328077138,197
530,-20.403333333333336,-176.09777777777776,-29.093333333333334,-8.676259496284095,320
973,61.44888888888889,-153.5977777777778,-183.77666666666667,-8.770823273516406,330
576,-32.68555555555555,277.82888888888886,-17.053333333333335,-8.453596632528038,190
1903,-21.032222222222224,-177.42666666666665,1.8944444444444466,-8.676259496284095,319
1512,-35.90555555555556,-113.62444444444444,328.3955555555556,-8.467821328077138,198
1075,-20.33,-163.0311111111111,44.114444444444445,-8.578722986860175,299
1345,51.218888888888884,-138.80444444444444,-243.79222222222222,-8.805379439789986,339
1259,43.023333333333326,-178.42333333333332,-71.22888888888889,-8.61860575494673,305
162,-85.52777777777779,-194.20777777777778,36.03,-8.622041154728889,310
514,-44.37555555555556,165.2733333333333,215.40666666666667,-8.34692570910912,175
374,-37.35888888888889,323.91555555555556,-48.76666666666667,-8.453593879595307,189
1950,-50.098888888888894,-205.53555555555553,-144.12555555555556,-8.806197805052225,357
1745,-35.69,-98.89999999999999,348.5388888888889,-8.482464062358098,200
1563,-37.68111111111111,322.80333333333334,-36.82333333333334,-8.45359146947419,188
1962,-82.54222222222222,-171.68888888888887,48.394444444444446,-8.622041154728889,311
240,67.33555555555556,-164.0822222222222,-91.4888888888889,-8.618615560903953,308
1258,-21.21888888888889,-199.51666666666668,-56.51,-8.676259496284095,317
483,-35.05555555555556,-181.10999999999999,-76.74111111111111,-8.749658343793882,327
879,94.89,-156.54888888888888,-181.13888888888889,-8.751292536150409,328
305,-24.113333333333333,-161.95888888888888,-160.11444444444444,-8.803937189956141,337
1600,38.75666666666666,-171.6222222222222,-42.83444444444444,-8.571218030677427,298
529,51.06222222222222,277.4811111111111,-100.32666666666665,-8.459803096589356,193
674,-37.42444444444445,-90.87333333333333,375.6188888888889,-8.482464062358098,199
1924,106.7388888888889,-176.93444444444444,-143.6222222222222,-8.613675555774474,302
354,-20.41777777777778,-184.71888888888887,-46.98777777777778,-8.676259496284095,318
365,-19.543333333333333,-185.69555555555556,-24.26777777777778,-8.635844308815988,314
1800,58.09555555555555,267.4944444444444,-113.5,-8.459803096589356,194
100,-29.607777777777777,290.33,-150.48888888888888,-8.522113694570798,218
1395,230.65555555555557,-208.0011111111111,-243.61555555555555,-8.618585690005707,303
1872,-37.58222222222223,-137.07666666666665,312.0333333333333,-8.518717782112162,206
1453,-19.016666666666666,306.45222222222225,93.17444444444446,-8.332422957344754,172
1931,71.44333333333333,-107.70222222222222,304.9244444444445,-8.439515428191605,183
1063,41.50666666666666,286.71222222222224,-108.16222222222223,-8.459807723108273,195
1565,52.64555555555556,-170.75777777777776,-95.27888888888889,-8.672562657333488,316
1221,-18.92666666666667,309.56666666666666,77.75999999999999,-8.332422957344754,171
744,-27.736666666666665,209.04555555555555,284.8122222222222,-8.175407554160772,147
273,55.83888888888889,-171.77555555555554,-64.25777777777778,-8.618615560903953,307
1290,-21.83888888888889,-199.51666666666668,-46.98777777777778,-8.676259496284095,324
1084,62.656666666666666,279.53222222222223,22.791111111111118,-8.311437317096775,164
788,78.39111111111112,214.64555555555555,207.57777777777778,-8.050579404670101,136
432,-40.48888888888889,174.2811111111111,183.84222222222223,-8.34692570910912,173
1450,-74.23666666666666,-188.3522222222222,103.44444444444444,-8.56363669980669,295
680,37.62555555555555,303.4633333333333,68.22777777777779,-8.290670104397929,158
425,52.23777777777778,-169.22555555555556,-101.81666666666666,-8.628343425605264,312
306,199.21777777777777,-122.74444444444444,288.28222222222223,-8.315238594023073,165
755,-17.492222222222225,-107.56777777777778,315.0411111111111,-8.484465714960818,201
394,72.25888888888888,-169.88,-92.27888888888889,-8.61227748431282,300
1483,-74.00222222222222,-188.17,113.21555555555555,-8.563642687572655,296
1767,80.57111111111112,-78.83333333333334,475.8211111111111,-8.262010541506408,151
408,-21.35,311.0188888888889,84.32111111111111,-8.332422957344754,170
1314,100.45888888888888,339.11,-53.092222222222226,-8.311420974430165,159
1769,-78.27444444444444,-89.99333333333334,515.098888888889,-8.372077098853252,177
1004,71.02,294.9222222222222,6.37555555555555,-8.311434564164044,162
1027,-50.29,267.74888888888887,129.20666666666668,-8.331959621388961,169
1927,70.19222222222223,292.1911111111111,-6.653333333333336,-8.311432154042928,161
1976,67.33555555555556,-171.77555555555554,-110.69666666666666,-8.618615560903953,309
1173,-38.13222222222222,-139.67444444444445,318.2388888888889,-8.518675407848583,205
1756,-40.62555555555556,-110.58444444444444,490.11,-8.374421315132986,179
1244,100.28111111111112,-179.80444444444444,-136.60777777777776,-8.613675555774474,301
1784,70.19222222222223,304.81888888888886,0.173333333333332,-8.311432154042928,160
1307,64.84,-76.99444444444444,525.4533333333334,-8.118456330069693,140
351,-89.45333333333333,-162.73,76.78555555555556,-8.553724111257164,294
1022,-41.59111111111112,-126.82666666666665,356.3322222222222,-8.518977924136706,207
251,-7.914444444444444,193.82,486.22555555555556,-7.837184712552973,104
596,54.272222222222226,-167.39888888888888,-96.03888888888889,-8.618609827918753,306
439,157.21333333333334,-124.68444444444444,216.85444444444445,-8.448696021803967,186
678,-25.523333333333333,215.1177777777778,278.3211111111111,-8.175407554160772,148
1265,231.61,-190.56999999999996,-257.01666666666665,-8.618585690005707,304
211,152.78888888888886,-128.71333333333334,184.73,-8.51701306527569,202
1111,-18.28,191.75888888888892,376.1388888888889,-7.992131788699166,132
1622,-44.07000000000001,305.7477777777778,217.10222222222222,-8.159918271423514,146
1301,-76.02000000000001,-179.01,91.76666666666668,-8.563642687572655,297
1592,-26.795555555555556,-119.80888888888889,586.6855555555555,-8.28143972537404,154
670,77.8288888888889,237.76555555555558,223.47222222222223,-8.025067542258647,133
1370,66.47333333333333,257.0211111111111,253.20000000000002,-7.940507077380807,126
916,78.49444444444444,237.44333333333333,187.11555555555557,-8.025067542258647,134
651,73.04333333333334,-98.45666666666668,345.86333333333334,-8.433888742670167,182
1326,85.69666666666666,211.36444444444447,215.24444444444444,-8.050579404670101,135
173,78.36666666666667,190.38444444444445,271.8955555555555,-7.948417528381372,129
1324,83.75555555555556,-77.42666666666668,428.6488888888889,-8.277400883002604,152
1491,-71.93444444444445,-100.20444444444445,509.5288888888889,-8.356203558367614,176
1573,-48.05888888888889,323.1588888888889,176.0222222222222,-8.159918271423514,145
322,80.57111111111112,-78.83333333333334,475.8211111111111,-8.262010541506408,149
393,67.93333333333334,182.5077777777778,268.7166666666667,-8.0509027581093,137
1078,-68.04444444444445,-107.17444444444445,524.4300000000001,-8.321303757274132,167
411,137.24222222222224,-85.1222222222222,597.4788888888888,-7.825368184661119,101
1242,-28.126666666666665,-104.14,599.7722222222222,-8.28143972537404,155
1981,67.49666666666667,-91.64555555555556,486.3855555555556,-8.118466976336697,142
543,-17.772222222222222,185.60888888888888,387.61555555555555,-7.908740145463106,121
1419,-39.272222222222226,-111.05111111111111,490.11,-8.374421315132986,180
49,-41.43222222222222,-122.34444444444443,440.2088888888889,-8.374421315132986,178
427,168.71,-111.81444444444443,195.00111111111113,-8.448696021803967,185
324,137.98777777777778,-85.55888888888887,618.3566666666666,-7.825368184661119,100
1319,-31.785555555555558,-109.98666666666666,548.8766666666667,-8.287027922593252,156
1647,81.11444444444444,218.91000000000003,255.55555555555554,-7.941212078904373,128
188,64.17444444444445,-76.59777777777778,533.5266666666666,-8.118456330069693,141
985,-23.705555555555556,178.75555555555553,373.25666666666666,-7.956278005223975,130
552,36.096666666666664,154.95111111111112,389.70444444444445,-7.8741970658261,116
1782,-15.366666666666667,172.6955555555556,439.7833333333333,-7.908740145463106,122
76,57.16333333333334,-94.60111111111111,503.7922222222222,-8.128937290439167,144
1384,66.44,-80.61444444444444,495.2322222222223,-8.128912087277092,143
617,-36.89666666666667,-110.28333333333333,493.86111111111114,-8.331703098203535,168
693,-33.80777777777778,-100.38888888888889,564.308888888889,-8.287038568860254,157
250,81.06333333333333,-101.16333333333333,313.9422222222222,-8.443815205775593,184
124,72.90333333333332,-82.39777777777778,467.7011111111111,-8.277400883002604,153
1555,-39.272222222222226,-122.34444444444443,451.25111111111113,-8.374421315132986,181
965,130.35,-65.06444444444445,570.6877777777777,-7.843593264563178,105
185,-36.11777777777778,-105.74111111111111,691.3077777777778,-7.957911130296521,131
593,8.719999999999999,170.23333333333335,422.0233333333333,-7.873362579181247,114
554,200.90222222222224,-109.14888888888888,278.3477777777778,-8.315238594023073,166
782,65.74333333333334,252.69111111111113,247.3388888888889,-7.940416482228348,125
907,-33.800000000000004,167.2288888888889,462.07222222222225,-7.881631258900409,117
1605,84.87777777777778,-78.83333333333334,463.34333333333336,-8.262010541506408,150
65,70.63444444444444,244.7977777777778,219.4311111111111,-7.940507077380807,127
109,-25.682222222222222,-83.44555555555556,767.3422222222222,-7.852496964885873,106
168,60.98777777777778,-60.33,684.4511111111111,-7.772401865117129,97
495,-37.50666666666666,166.33222222222224,464.4666666666667,-7.882034053635683,118
1089,-31.794444444444444,160.43666666666667,525.87,-7.816006593446784,99
746,-47.662222222222226,-91.7611111111111,721.0111111111111,-7.89883072890393,120
1196,60.19555555555554,113.09111111111113,404.47777777777776,-7.917032939557076,124
1356,53.7,162.76333333333332,590.3877777777777,-7.531667438436543,69
771,69.87555555555555,100.35222222222222,421.87222222222226,-7.917032939557076,123
909,53.16555555555556,180.13333333333333,479.4511111111111,-7.66868558098326,86
69,-57.36222222222223,170.21666666666667,401.94000000000005,-8.073949411265483,138
429,66.66888888888889,-84.70666666666666,681.0944444444444,-7.856385477570549,112
887,76.61444444444444,116.31111111111113,385.9,-7.894082338891824,119
203,-17.79,158.51222222222225,528.5388888888889,-7.767497871368312,92
1934,-20.025555555555556,-73.37666666666667,837.8577777777778,-7.652261887981896,80
1566,93.21111111111111,-76.77444444444444,658.1999999999999,-7.768543066987277,93
1766,47.84444444444445,-84.77777777777777,737.3211111111111,-7.667936243077132,84
1998,70.92333333333333,-90.69333333333333,636.0011111111112,-7.856385477570549,111
63,81.13222222222223,-89.7211111111111,636.0677777777778,-7.8563439151443255,107
316,-54.660000000000004,-96.89555555555556,624.6277777777777,-8.094450834866862,139
679,107.04333333333334,-69.53333333333333,634.7788888888888,-7.768543066987277,94
1472,70.97555555555554,-84.70666666666666,668.6877777777778,-7.856385477570549,109
628,-21.643333333333334,-63.233333333333334,953.4277777777777,-7.290544002884049,49
1190,82.38,-81.77222222222221,660.7644444444444,-7.814297613755442,98
1847,95.21222222222222,-63.422222222222224,713.4722222222222,-7.599044509566402,75
888,60.14444444444443,-89.3511111111111,664.9511111111111,-7.856385477570549,110
239,97.71444444444444,-53.03444444444443,732.4955555555556,-7.538804975615946,71
584,14.052222222222223,166.85,402.6744444444444,-7.873362579181247,115
1164,80.55666666666666,-89.56555555555556,655.4522222222222,-7.8563439151443255,108
1414,63.394444444444446,161.5888888888889,500.9477777777778,-7.668686549288564,87
610,62.66444444444444,153.76,557.151111111111,-7.531667438436543,68
1085,64.24666666666667,160.97111111111113,547.1666666666666,-7.531652515694534,66
415,104.22666666666666,-67.16666666666667,661.3722222222221,-7.768543066987277,95
1223,48.32555555555555,-75.95444444444445,777.7266666666667,-7.667915114032359,83
1116,-25.664444444444445,-57.67444444444445,909.4066666666668,-7.485400333489222,62
807,45.97,-80.29222222222222,767.7033333333333,-7.647170131514847,78
538,-26.175555555555555,111.12,691.3777777777777,-7.552393637662272,74
1736,138.48888888888888,-84.11555555555555,596.0122222222221,-7.825368184661119,102
1431,75.96222222222222,-93.24444444444444,644.9911111111111,-7.8266291794422145,103
1053,37.63666666666667,115.78,539.9511111111111,-7.704724542762555,88
1798,45.76444444444444,-60.937777777777775,824.7988888888889,-7.50804247482797,65
1966,36.69777777777777,-60.90888888888888,864.0177777777778,-7.492413492529294,63
1869,83.97444444444444,-61.73888888888889,742.3911111111112,-7.538804975615946,72
855,93.62333333333332,185.73888888888888,451.54444444444437,-7.6344240218566455,77
422,94.79,-53.103333333333325,722.7444444444445,-7.538804975615946,70
212,35.85777777777778,110.43777777777778,710.7166666666667,-7.400355696605623,57
817,51.57555555555555,-61.632222222222225,876.5866666666666,-7.24366716461588,44
931,47.852222222222224,-83.21666666666667,758.6555555555555,-7.647170131514847,79
367,60.14444444444443,-90.69333333333333,670.9933333333333,-7.856385477570549,113
1333,-19.52111111111111,132.89,671.3422222222221,-7.542279163781409,73
1394,95.21222222222222,-63.422222222222224,713.4722222222222,-7.599044509566402,76
1696,38.65888888888889,97.7811111111111,545.9288888888889,-7.763904112608626,91
471,43.40444444444444,-55.86444444444444,928.6166666666666,-7.196053921899538,37
764,53.98222222222222,175.98000000000002,563.1066666666667,-7.531652515694534,67
254,38.68333333333333,97.96777777777777,563.3833333333333,-7.763904112608626,90
1959,-18.873333333333335,118.02,737.8555555555556,-7.423000459382728,59
1225,-16.053333333333335,-64.55,892.99,-7.476815646643527,61
993,45.30666666666667,-71.5311111111111,794.4588888888889,-7.667880798192403,82
829,47.02444444444444,-67.97777777777777,851.9088888888889,-7.413605687944856,58
352,50.34444444444444,-65.07666666666665,707.2522222222221,-7.772401865117129,96
857,-14.853333333333333,113.75,753.1333333333334,-7.358112234261558,55
480,44.13333333333333,-64.79555555555555,896.4955555555555,-7.24220916117656,42
889,38.99666666666667,143.76111111111112,619.6033333333334,-7.4376240156362305,60
310,32.48777777777778,103.38111111111112,580.4944444444444,-7.763904112608626,89
1487,-23.07888888888889,-79.07333333333332,938.8788888888889,-7.290544002884049,50
339,38.69444444444444,-85.20333333333333,781.4766666666667,-7.667880798192403,81
265,43.33888888888889,-56.60666666666666,919.7322222222222,-7.24220916117656,43
792,46.80222222222223,-62.39333333333333,885.5122222222221,-7.1777019607918096,35
1761,-21.612222222222222,-79.07333333333332,943.1800000000001,-7.290544002884049,48
1036,53.412222222222226,-65.32,926.7166666666667,-7.044330219983823,24
1610,27.035555555555554,97.14333333333333,731.2244444444444,-7.288180176030875,47
780,45.82555555555555,115.68777777777778,671.9566666666667,-7.400355696605623,56
1937,50.52,-50.89333333333333,901.1433333333332,-7.196053921899538,38
135,46.362222222222215,-65.2088888888889,940.2277777777779,-7.044330219983823,26
720,46.86222222222222,-55.937777777777775,852.4277777777777,-7.492413492529294,64
939,53.044444444444444,-71.11888888888889,751.5022222222223,-7.667936243077132,85
175,-21.812222222222225,-79.41666666666666,961.8033333333333,-7.244388763607027,45
1618,57.858888888888885,-52.19,931.27,-7.044330219983823,25
56,-20.51888888888889,131.20777777777778,772.8633333333335,-7.316516972810449,53
1412,32.56777777777778,101.11777777777777,702.4211111111113,-7.354145379854946,54
1710,23.92666666666667,120.00555555555556,705.1866666666667,-7.3065321371386025,52
1278,51.84,-50.67222222222222,924.3855555555556,-7.240715320966635,41
231,24.00111111111111,117.02555555555556,721.9988888888888,-7.3065321371386025,51
1810,54.82666666666667,-55.86444444444444,875.441111111111,-7.196053921899538,40
926,54.525555555555556,-55.45555555555555,885.6822222222222,-7.196053921899538,39
436,54.007777777777775,-64.97,923.7877777777777,-7.045855686096772,27
2,48.75,-56.755555555555546,931.6077777777778,-7.012340395592018,23
715,40.135555555555555,-63.09444444444444,916.0688888888889,-7.1777019607918096,34
752,48.75,-51.303333333333335,950.29,-7.011254291865136,20
289,25.25111111111111,105.49444444444445,766.9933333333333,-7.077228646280873,31
1313,26.906666666666666,102.84111111111112,711.8733333333333,-7.288180176030875,46
307,46.92444444444445,-56.52555555555555,967.901111111111,-7.045855686096772,28
1473,16.59,121.42,784.7266666666667,-7.076892170037826,30
1608,48.75,-55.21444444444444,970.0811111111111,-6.801729396401719,14
332,34.51111111111111,102.65444444444444,774.2411111111112,-7.186429074357291,36
1789,48.75,-51.22,959.59,-7.011254291865136,19
694,48.75,-52.04111111111111,945.0055555555555,-7.012340395592018,22
706,62.855555555555554,-57.895555555555546,890.4455555555555,-7.118860842979783,33
184,16.59,114.13666666666666,794.9588888888889,-7.078314750007755,32
937,42.72666666666667,-64.87333333333333,934.5477777777778,-7.012340395592018,21
1364,48.75,-53.751111111111115,993.0944444444444,-6.8475665961936825,16
1562,21.776666666666667,121.42,772.0377777777778,-7.076892170037826,29
111,16.59,116.5911111111111,863.3588888888889,-6.798750132106741,13
736,43.77777777777778,-63.29,1011.161111111111,-6.745988204371135,10
353,48.75,-58.81999999999999,985.6411111111111,-6.801729396401719,15
71,48.75,-51.22,959.59,-7.011254291865136,18
944,37.25333333333333,-62.01222222222221,1065.0344444444445,-4.305656758123922,9
73,22.063333333333336,106.54777777777778,824.5611111111111,-6.9598461716318365,17
256,25.25111111111111,103.56222222222222,846.2266666666667,-6.798750132106741,12
1675,48.75,-57.8811111111111,991.7744444444445,-6.792285346799877,11
906,16.59,114.95111111111112,907.01,-4.197623153971652,8
905,25.25111111111111,109.53777777777778,871.1122222222223,-4.197623153971652,7
1033,37.25333333333333,-69.37222222222222,1036.1200000000001,-2.158069332216941,6
1686,22.063333333333336,121.3,877.79,-2.1451745143480108,5
368,25.25111111111111,118.28222222222223,860.0433333333333,-2.1451745143480108,4
555,37.25333333333333,-69.13333333333333,1067.648888888889,1.3615992358088833,3
1292,22.063333333333336,121.95555555555555,900.4477777777779,2.925094349312842,2
1674,26.083333333333332,105.77111111111111,940.0722222222223,4.531872025103038,1
