,gender,race,X,score,ranking
1710,0.0116465826115359,0.059491210669623956,-0.5363688978504241,-9.44628079199768,471
352,0.010857321084687337,0.059491210669623956,-0.5191887833628616,-9.44628079199768,473
1610,0.01251842231997763,0.05967207530167598,-0.5279394606802912,-9.44628079199768,474
45,0.013456062186741984,0.05688713664161482,-0.5392086551601081,-9.44628079199768,472
752,0.0049599423673793155,0.07381512395999679,-0.45837367567300413,-9.40000257107584,437
163,0.009172402273580146,0.054671364538160704,-0.5381883084097053,-9.44628079199768,470
1107,0.005985371319609996,0.07588660821020438,-0.5120083103450845,-9.40000257107584,438
1111,0.01878603855337526,0.054671364538160704,-0.5449958332592483,-9.446071848580711,443
1193,0.016273784131736704,0.05980973304962509,-0.5142958956940636,-9.44628079199768,476
1013,0.014423859823559131,0.05967207530167598,-0.5452047766762166,-9.44628079199768,469
650,0.014423859823559131,0.05967207530167598,-0.5452047766762166,-9.44628079199768,475
819,0.011101508786515715,0.058880912088754116,-0.5575855168588228,-9.446071848580711,444
1912,0.009196071282934214,0.05597777101447592,-0.5714380252620187,-9.44628079199768,477
1063,0.02845118843207734,-0.10312498111571955,-0.5573700413878812,-9.580192125468727,499
630,0.01859423318955774,0.056356123682578564,-0.5485033281551229,-9.446071848580711,445
1959,0.013456062186741984,0.054937315735063275,-0.5049325412158374,-9.446071848580711,446
1537,0.011556212926408401,0.05597777101447592,-0.5647377976820475,-9.446071848580711,451
1930,0.03233972811560966,-0.10270929838075273,-0.5376280769650819,-9.580192125468727,498
1453,0.010670819152300547,0.058546533457412786,-0.5277305172633228,-9.446071848580711,452
393,0.01878603855337526,0.05771879346568544,-0.5407444900921708,-9.446071848580711,450
1245,0.01859423318955774,0.059790277715893014,-0.5267488582342278,-9.446071848580711,447
1745,0.02633027655532425,-0.10340616909410974,-0.5217033691804257,-9.579983182051759,478
374,0.03233972811560966,-0.10343738769218756,-0.5170008377303302,-9.579983182051759,484
297,0.013240587813570393,0.058736510051964674,-0.51759444717297,-9.446071848580711,448
464,0.006654941220620972,0.07501037848761602,-0.5287955995234905,-9.40000257107584,436
1847,0.037418480650293434,-0.09909419446471558,-0.497810956464784,-9.579983182051759,485
1512,0.01276806201969957,0.05960941308384099,-0.5575855168588228,-9.446071848580711,440
1640,0.03446916496575304,-0.10073236036386529,-0.550081039505246,-9.579983182051759,481
332,0.02845118843207734,-0.10270929838075273,-0.550081039505246,-9.579983182051759,482
755,0.018922214643502983,0.05844906466609979,-0.5240094665391285,-9.446071848580711,441
1922,-0.021641917555763647,-0.1256990265661529,-0.4909948474807516,-9.638749459225188,500
289,0.03186680997283707,-0.10170050693825983,-0.5090801509446009,-9.579983182051759,479
544,0.026545750928495843,-0.10270929838075273,-0.5321483268779462,-9.579983182051759,480
974,0.014615665187376654,0.059086658378948914,-0.5647377976820475,-9.446071848580711,461
1240,0.026522081919141773,-0.10538310711099716,-0.5125421750118604,-9.579983182051759,496
381,0.014423859823559131,0.05967207530167598,-0.5449958332592483,-9.446071848580711,455
1966,0.010857321084687337,0.05806475286537953,-0.5357691998404325,-9.446071848580711,456
1624,0.011556212926408401,0.05844906466609979,-0.5288249539314791,-9.446071848580711,457
1615,0.012357040270497596,0.05432121621117647,-0.5438236533194856,-9.446071848580711,458
931,0.01859423318955774,0.059790277715893014,-0.5267488582342278,-9.446071848580711,459
938,0.03233972811560966,-0.09645480343690774,-0.5217033691804257,-9.579983182051759,495
1333,0.010455344779128956,0.06005042796977862,-0.51759444717297,-9.446071848580711,460
1691,0.011316983159687306,0.05951215230857832,-0.5516580719778035,-9.446071848580711,466
298,0.011316983159687306,0.057574505612438896,-0.5288249539314791,-9.446071848580711,465
941,0.011556212926408401,0.059141062342639716,-0.5370671041687741,-9.446071848580711,467
1273,0.009753062337795321,0.054671364538160704,-0.5438236533194856,-9.446071848580711,439
679,0.005450994625858054,0.07539698940986285,-0.5063697597268075,-9.399793627658871,435
1440,0.009196071282934214,0.05597777101447592,-0.5712290818450503,-9.446071848580711,462
1829,0.009708609758731317,0.05801552049837652,-0.5370671041687741,-9.446071848580711,442
1164,0.026545750928495843,-0.1016135216498858,-0.5413095210465115,-9.579983182051759,483
1027,0.011748018290225924,0.059491210669623956,-0.546221515230032,-9.446071848580711,463
651,0.02047461285501432,0.057078018429461364,-0.16844643377973723,-9.072066396048108,113
1433,0.020441836357234823,0.05597777101447592,-0.5449958332592483,-9.446071848580711,464
494,0.027931578446565398,0.057395519997142846,-0.17434108448694702,-9.072066396048108,111
1761,0.03253153347942718,-0.09954778713729175,-0.500599332558215,-9.579983182051759,489
394,-0.009214163213092865,0.06845893462409483,-0.13738901718029978,-9.085305277868239,168
413,0.02845118843207734,-0.09909419446471558,-0.5217033691804257,-9.579983182051759,488
1803,0.02633027655532425,-0.10345873668004721,-0.5304026652816023,-9.579983182051759,487
1609,0.03021881623885657,-0.10270929838075273,-0.5065102525659606,-9.579983182051759,493
529,0.023696146234081034,0.05508999286628078,-0.15211995465862155,-9.073676701870113,118
1905,0.009196071282934214,0.05967207530167598,-0.5403924232204553,-9.446071848580711,468
1696,0.020201680480899757,0.057300020920623224,-0.2028153282370489,-9.072066396048108,112
1370,0.026545750928495843,-0.10433989796606769,-0.5217033691804257,-9.579983182051759,494
614,0.025201765126144273,0.05810703671138484,-0.17944366398688397,-9.073676701870113,117
115,0.02937230477123095,0.0553831867190897,-0.14853252170079376,-9.073671164750095,116
192,0.03242067677746633,-0.09872618640880922,-0.11623829040826261,-9.199005892124303,320
49,0.02964883861058841,-0.10134209546804734,-0.1534235333320022,-9.205157011454029,322
730,0.028833851063022796,-0.10543567469693463,-0.513575500913068,-9.579983182051759,491
342,0.029649920824766467,-0.09911963629052487,-0.13879650739326063,-9.200610445798361,321
303,0.025201765126144273,0.05810703671138484,-0.17944366398688397,-9.073676701870113,120
588,0.014423859823559131,0.05967207530167598,-0.5449958332592483,-9.446071848580711,453
581,0.018080768604146664,0.057300020920623224,-0.17270952604435758,-9.072066396048108,115
218,0.022087582882426612,0.058109368365277095,-0.19193886421194062,-9.08866389627772,202
771,0.02624047516412524,0.05287481515095751,-0.2061080665389816,-9.08865124196196,184
1022,0.01975850221234776,0.05287486555278128,-0.16481934275458437,-9.073676701870113,123
519,0.036433851941739176,-0.09928680748436047,-0.16801933957716977,-9.199005892124303,319
361,0.021233250081714096,0.05490977302418337,-0.18444710372188916,-9.073676701870113,122
220,0.028666662805248933,-0.10270929838075273,-0.5630572078600992,-9.579983182051759,497
128,0.021968444944175294,0.05810694326276983,-0.206114608291119,-9.088657902917419,191
1223,0.009172402273580146,0.05801552049837652,-0.5207862713543695,-9.446071848580711,454
1550,0.03761028601411096,-0.09645480343690774,-0.5321483268779462,-9.579983182051759,492
712,0.00462843322653466,0.07466594140922239,-0.4749520214344418,-9.399793627658871,434
353,0.019436155330273264,0.05305508539487869,-0.16481934275458437,-9.073676701870113,124
1378,0.029279592239864656,-0.10543567469693463,-0.5065102525659606,-9.579983182051759,490
1293,0.011101508786515715,0.05775537024449092,-0.537979364992737,-9.446071848580711,449
29,0.029542008051618864,0.0571962208436784,-0.12990385873605553,-9.072066396048108,114
120,0.016664633211840415,0.05656911943815757,-0.1457999342607333,-9.08865124196196,188
1229,0.022107896125636923,0.05769466128242076,-0.18302384621307685,-9.08865124196196,189
259,0.03353737829412073,-0.10059265716875286,-0.1291215757762616,-9.205157011454029,323
1592,0.01666449079905195,0.052874814158472956,-0.1769084881524091,-9.088660322793798,197
478,0.019436155330273264,0.05810703671138484,-0.17639842730574223,-9.073676701870113,119
1258,0.026545750928495843,-0.10433989796606769,-0.5217033691804257,-9.579983182051759,486
1600,0.028294963531310398,-0.10184625965978784,-0.11623829040826261,-9.199005892124303,318
1932,0.021233250081714096,0.056576942576446604,-0.1691190676320914,-9.073676701870113,121
906,-0.027266606741409963,-0.1104149139822426,-0.1242828591719526,-9.266311728054983,403
1646,0.019986815662677175,0.057702466086507406,-0.18142424944958901,-9.088660090682973,195
265,0.020120919915303914,0.055958170790945276,-0.18383029986401633,-9.08865124196196,186
1981,0.026733087058464396,-0.098620045799243,-0.18513649388172754,-9.220146562921064,339
617,0.016505941275836815,0.05441475136028145,-0.21961170572000993,-9.088668777221942,228
1324,0.026073434924923596,0.05565559794173097,-0.16928163936872834,-9.088662092478915,199
1659,0.02624047516412524,0.05508993718806918,-0.20463674266445167,-9.08865124196196,187
1675,0.028992380182889597,-0.09655327945457015,-0.16550481670303707,-9.220142981693492,331
1924,0.022050414343678507,0.05781508109662237,-0.1999776270024478,-9.088662092478915,200
76,0.02464482353475929,0.055960611512440375,-0.14579848951359697,-9.088665463046102,210
344,0.02010159487044993,0.05675177472536223,-0.18302386948626803,-9.088665463046102,209
453,0.017187811494097174,0.05565559794173097,-0.1999776270024478,-9.088662092478915,201
782,0.024664070440807567,0.05595812820326162,-0.14580647240806088,-9.088657902917419,190
978,0.022107753712848458,0.05810697394050028,-0.19194867307584104,-9.088660322793798,196
1673,0.021949206266743602,0.05799557993169837,-0.1768958714100518,-9.08866389627772,203
596,0.028858633717963607,-0.09703001760573123,-0.16550360245553344,-9.220131444779122,326
1541,0.03288607601408444,-0.09999995369759873,-0.18037832526152714,-9.22013822553779,328
526,0.016525182030378786,0.053054987128983426,-0.1769060915117995,-9.088657902917419,192
1788,0.016505935124330507,0.054415002292385536,-0.2196086173198462,-9.088665463046102,211
1729,0.029074048970279272,-0.09596152755027193,-0.16277770183558143,-9.220142981693492,333
674,-0.004981663798465353,0.06845870107023327,-0.18666180702142998,-9.085309662803025,169
1937,0.027967169363181207,0.05731808690534913,-0.1758139157967389,-9.088666726014878,213
1041,0.019966662357764363,0.05810930657958559,-0.1616457151646171,-9.088665463046102,206
1544,-0.004980793513813716,0.06804637979794431,-0.15636863469662926,-9.085309662803025,170
879,0.02627826949163553,0.05822518496892676,-0.17434357033965095,-9.08865124196196,185
1612,0.020239971066840372,0.05781495462550047,-0.19652513152424939,-9.088665463046102,207
1178,-0.004922122890266549,0.06522792606279396,-0.1949203820082196,-9.08531811596532,171
618,0.019847459859971363,0.0544127140899824,-0.20692323687148284,-9.088660090682973,193
1664,0.032054148756018516,-0.09870724667443442,-0.15300666511595126,-9.22014440795191,335
239,0.026257947600516064,0.05532436791952444,-0.20463737869022086,-9.088665463046102,208
365,0.021949192829505516,0.05868517398924073,-0.1645128006001268,-9.088666726014878,215
887,0.028105545294164185,0.05441494583107094,-0.19194155191568618,-9.088666726014878,214
188,0.01982829438999051,0.05509243885742018,-0.1768958714100518,-9.08866389627772,204
1741,0.02687709488386644,-0.10074945639712685,-0.174247584593485,-9.220131444779122,325
527,0.02208758182616909,0.05810901352412631,-0.1919441057679465,-9.088669530467419,236
1134,-0.02221742031671512,-0.11236589016265545,-0.15871724084711036,-9.27085963359408,408
471,0.03487197969497947,-0.09559014902010438,-0.15300511780726817,-9.220142981693492,332
1384,0.026834378903839436,-0.10059663048473512,-0.16278295972157744,-9.220147449229138,344
1474,0.026119587598584886,0.055092504071237905,-0.19571766681192235,-9.088662092478915,198
1927,0.016644312780390663,0.05287674957632836,-0.17689959631442204,-9.088667843704572,221
1784,0.016505941275836815,0.05675152776027713,-0.14580156714146097,-9.088668777221942,229
1950,-0.02694939446277817,-0.11699231927906575,-0.17583733026913273,-9.270851540081377,407
1487,0.0186268417924621,0.056751719011283994,-0.17609432788393742,-9.088666726014878,217
572,0.016525108822927945,0.05305505992246576,-0.17690827585119456,-9.088660090682973,194
1562,0.038764690077550346,-0.0987025219257412,-0.164703587008386,-9.22013822553779,327
51,0.016505929915709008,0.053057414724083936,-0.17689857139038706,-9.088666726014878,216
254,0.027967182800419293,0.05822757077949414,-0.1688804767222151,-9.08866389627772,205
44,0.016505941097140518,0.05305718187768656,-0.17690115607586904,-9.088669530467419,234
1532,0.016644312780390663,0.0544148444517519,-0.20544385331949344,-9.088667843704572,219
212,0.03487197546889318,-0.09430807116984885,-0.1540376150968341,-9.220146562921064,340
1794,0.03180331727297078,-0.09380215279502993,-0.20675592693258765,-9.22014440795191,336
1412,0.01996666626399348,0.05901831576901989,-0.15471931985746076,-9.088670149279768,242
1080,0.02478320751060321,0.05441475136028145,-0.20464044367117637,-9.088668777221942,227
240,0.031941834940298855,-0.09391294645053413,-0.1851391533847572,-9.220148475211651,354
1798,0.038903839553635855,-0.09510481876030152,-0.13481432339806346,-9.220140960201928,330
1432,0.022087578140746574,0.05822715255609803,-0.18581819599155958,-9.088670149279768,239
1225,0.017980677785075377,0.05901856059074842,-0.1885120100425513,-9.088667843704572,222
1573,0.026737054387954727,-0.09802307412860825,-0.20676208762238918,-9.220140960201928,329
1323,0.016505941097140518,0.05418272372194975,-0.19652893370671726,-9.088669530467419,235
1190,0.03792249198353147,-0.10134652507438421,-0.18037819693963783,-9.220145621279475,338
367,0.023937509515748162,0.05781460714402198,-0.17250253505989885,-9.088670110733455,237
905,0.019828280952752457,0.05509226773025782,-0.17689963461485259,-9.088667843704572,218
1987,-0.02239012667368597,-0.11901668763799325,-0.1583938236785121,-9.270866082206556,411
1518,0.01664431910017443,0.05287665712185264,-0.17690044459992643,-9.088668777221942,230
968,0.01862685760589397,0.0581089316244225,-0.21880919158118917,-9.088670648188344,251
281,0.03792258296010978,-0.10134599191175184,-0.1803811179072876,-9.220147965402695,347
1491,-0.005271335537272085,0.06832587619279241,-0.12422482428036039,-9.085216055141105,130
829,0.01992949962803189,0.057696508810265085,-0.1758157597677012,-9.088668741498697,223
398,0.038861717764517065,-0.09870724667443442,-0.17344613820297144,-9.22014440795191,337
1998,0.018774434480411415,0.05787731656962543,-0.16582912950319273,-9.088665463046102,212
1391,0.02076593364873868,0.05747241789773992,-0.16543112225576995,-9.088670648188344,253
251,0.03072291858737175,-0.10059663048473512,-0.15008591532107818,-9.220147449229138,342
1242,0.016505941097140518,0.05810901352412631,-0.18851354237161952,-9.088669530467419,233
1274,0.01808189315260196,0.056751429678833135,-0.1616500210961201,-9.088670110733455,238
1510,0.01650594750755841,0.0569835193601675,-0.16888502844619568,-9.088668741498697,224
415,0.01996667668647939,0.057696508810265085,-0.15273227393300504,-9.088668741498697,226
964,0.022087598472983527,0.058227111339202185,-0.1858186014023933,-9.088670576212225,244
1173,0.03792258299880863,-0.1013460687840296,-0.1803805298902066,-9.220147449229138,343
203,0.03795980089897158,-0.0982249474595507,-0.18433495874460692,-9.220148591651572,366
787,0.019219931243595844,0.057317786928959134,-0.18141904839103917,-9.088670149279768,240
445,0.01808189010955573,0.055092130944479165,-0.2054447065605134,-9.088668777221942,231
584,0.0165059358588793,0.058109148738951955,-0.18851197438352976,-9.088667843704572,220
817,0.026119583787353524,0.057995277456629066,-0.1654293178175019,-9.088668741498697,225
1326,0.027967189884632433,0.05799515399775005,-0.1458033038188179,-9.088670621199698,250
930,0.03792249085555003,-0.09439495580096571,-0.16278253790480135,-9.220147370365787,341
1464,0.029021278038729545,-0.09392843107349472,-0.20676023423913015,-9.220147965402695,346
743,0.016607164429868863,0.05305706417377031,-0.18581906936422998,-9.088671053026825,268
1356,0.032742620732733985,-0.1000034506672707,-0.19325889746590896,-9.220147965402695,345
1555,-0.022385426477762402,-0.1194111329473529,-0.18616167726381289,-9.270866082206556,410
1614,0.027494214945465632,-0.10000332008252817,-0.1782394778025101,-9.220148206422161,348
1078,0.0318034558992734,-0.10272964437266068,-0.19325963341246102,-9.220148475211651,352
162,0.03876067282968951,-0.09861942573176552,-0.1716377587081043,-9.220148376444063,351
1454,0.031904518956936405,-0.1006843052034272,-0.1930723541858257,-9.220142981693492,334
514,0.01876523274204642,0.05810895483494444,-0.20464221301057062,-9.088670648188344,252
535,-0.004794617722992209,0.06431920305176247,-0.12462546783340278,-9.085213704340974,129
602,0.026733193143083943,-0.10059644677436497,-0.1540404474285949,-9.22014874086207,378
1676,0.032151618032257565,-0.10134588507365944,-0.15477371311063332,-9.22014874086207,376
261,0.018875652125659934,0.05314247538460479,-0.20691635207663484,-9.088670593484515,249
889,0.028854105019837036,-0.096440792441263,-0.18713335381263907,-9.22014874086207,377
824,0.018626862923751063,0.056751395793444126,-0.17609786333061372,-9.088670593484515,246
1314,0.026119587326793085,0.05596023258052226,-0.1527339898155473,-9.088670593484515,248
1493,-0.004794653879939155,0.06565455987851541,-0.16424277286612696,-9.085218825324082,132
736,0.029820911319034804,-0.10284126867753864,-0.14134330894680378,-9.220148591651572,365
1221,0.022087578140746574,0.05822715255609803,-0.18581819599155958,-9.088670149279768,241
764,0.03886189194464225,-0.0987063854482278,-0.1734512398851384,-9.22014853911992,360
1289,-0.005133000733303579,0.06477830668408319,-0.17245135982872578,-9.085219330950002,146
237,0.029820946997648833,-0.09665457765444943,-0.16985657961370496,-9.220148739935013,369
351,0.022087598472983527,0.058108908924985145,-0.19194504956874447,-9.088670576212225,243
1810,0.03284391541096656,-0.10068332346511522,-0.1734512398851384,-9.22014853911992,364
1431,0.026119590339848165,0.05509200160687257,-0.19572563394179596,-9.088670576212225,245
1938,0.026356973004338622,0.05795437070392008,-0.16165091212482507,-9.088671058433446,270
741,0.03274267989826531,-0.10059638665788662,-0.17163782128824007,-9.220148475211651,353
628,0.017980709258240666,0.05532396377750448,-0.2196136353416987,-9.088670827699103,258
1465,0.03274270498156279,-0.09452135001273099,-0.19140672874698797,-9.220148325838725,350
1473,-0.022607772782434112,-0.11292063184233563,-0.15787727186725498,-9.27086491916326,409
1335,0.018626871823676477,0.05698334546877373,-0.19918179090481597,-9.088671063818499,271
1265,0.021949224253014713,0.057995111707142374,-0.17690258127193914,-9.088671053026825,269
1965,0.032840035803018794,-0.09465637900276253,-0.21302871768563408,-9.220148591651572,367
670,0.022087601446315788,0.057814537634338366,-0.1769025899607652,-9.088671070507823,279
1307,0.016607159072862254,0.056751361423314814,-0.15472020717682197,-9.088671079389407,282
194,0.01733516561854772,0.056751395793444126,-0.19320050054567142,-9.088670593484515,247
63,0.020202806975114673,0.05799514988947839,-0.2054464671681695,-9.088670648188344,254
1423,0.0173723319190396,0.05698348002096672,-0.19319947681241798,-9.088669475507833,232
422,0.022087602672691976,0.05793491711366171,-0.196860804164691,-9.088671063818499,273
1556,0.028854163147479364,-0.09644066742013475,-0.1871335345886948,-9.220148739935013,374
1118,-0.00495245405961206,0.06855780288849148,-0.17840804477519906,-9.085216988658475,131
1919,-0.005133002955085202,0.06477832241308881,-0.1724511454787399,-9.085219101697753,137
507,-0.004814082569342395,0.0676346204656334,-0.13354676323988693,-9.085218857089563,134
613,0.02625797454881947,0.053289041897644905,-0.19194552293751677,-9.088671070507823,280
427,0.016505959946923384,0.05810888731303693,-0.1885149791589143,-9.088671063818499,275
1290,0.0288541610347358,-0.10000320443604598,-0.20595704724349134,-9.220148751227653,380
1179,0.037922655685168644,-0.10086425046253666,-0.19325998611471018,-9.220148751227653,381
1739,0.02673326154650895,-0.10134577647603565,-0.16551151482442011,-9.22014853911992,355
593,-0.004555731246097594,0.06911685323613558,-0.17178382101117534,-9.085219522915871,154
250,0.01876525028476656,0.05577963203749927,-0.1769025909024224,-9.0886710697497,277
23,-0.004282650279880887,0.06288103033613897,-0.1784097585399721,-9.085218825324082,133
530,0.016505962370963696,0.05810889479909283,-0.1885147525769735,-9.088670827699103,259
1292,0.032742703061421755,-0.0943943970055647,-0.16551171995942005,-9.220148739935013,373
1546,0.01650595848226575,0.05441458224887343,-0.2196140863353942,-9.08867129646214,289
1100,0.037922655321001975,-0.09391288200981995,-0.1756624509901318,-9.220148751227653,379
1196,-0.004536310094388027,0.0691168570395198,-0.14148902244264924,-9.085219330950002,149
585,0.02673325489237081,-0.10134577446719967,-0.1655115106383349,-9.22014853911992,358
1233,0.032742703061421755,-0.09380127829506812,-0.18713353299812205,-9.220148739935013,371
305,-0.022704438243507256,-0.11701836849150857,-0.17952161228281177,-9.270867304509295,418
1957,0.03550100992951896,-0.09439440880999767,-0.1611123642885322,-9.22014853911992,362
1621,0.0320543103150675,-0.0939281994355263,-0.17566244247179982,-9.220148739935013,370
944,0.02622080070966398,0.05577963756297146,-0.1758179183187366,-9.088671053026825,265
1483,0.03876068964047005,-0.09861940015985374,-0.17163796039655876,-9.22014853911992,361
1310,-0.004574907804229038,0.06675588056185612,-0.17245156381887752,-9.085219522915871,155
1736,0.022087605630984778,0.057814541628677524,-0.17690275761966945,-9.088671230264127,286
1686,0.024644836205733784,0.054414585045955303,-0.21880980570082775,-9.088671303379531,294
611,0.031941862424469065,-0.09391289498312555,-0.18513929470042279,-9.22014853911992,363
414,-0.02240462550085139,-0.1148162346102261,-0.16306443138476498,-9.270866953234211,414
1551,0.02194922512070751,0.05799511271945033,-0.17690235796883264,-9.088670827699103,255
692,0.016644321032355504,0.054414580168203254,-0.20544710716062115,-9.088671334736508,299
1345,0.019828313243954385,0.05810889376892081,-0.1758179183187366,-9.088671053026825,266
1272,0.02208760132180998,0.057814539508901364,-0.1769025909024224,-9.0886710697497,278
462,-0.022427167377816082,-0.1162242027899531,-0.16306455536437747,-9.27086712256621,415
256,0.026834462522688115,-0.10059632073276922,-0.16278479518540637,-9.220148890139278,385
432,0.02194921070910151,0.05810888933315536,-0.20611274713357747,-9.088671303379531,291
266,0.020202911329328912,0.056751416026244755,-0.19194543939235176,-9.088670852040794,260
1103,0.0280684041226081,0.057814545961528345,-0.1688869685148856,-9.088670827699103,256
1782,0.017335156818002555,0.05577962837898419,-0.19558717634003644,-9.088671334736508,296
591,0.01660332683322847,0.053057057787362284,-0.196860804164691,-9.088671063818499,272
765,0.03487214330279959,-0.09802627931717645,-0.20595682766643034,-9.22014853911992,359
1897,0.02673324795082843,-0.09861939627101729,-0.18513951540045176,-9.220148764447645,383
1083,0.024644850781392478,0.056192189741907775,-0.1688869685148856,-9.088670827699103,257
1198,0.028992546898634217,-0.1000032110801961,-0.19307940976834426,-9.220148922595259,386
1497,0.03288108642346098,-0.09391289498312555,-0.1655115106383349,-9.22014853911992,357
65,-0.004125098029799689,0.06288102613631642,-0.15532654135173107,-9.085219101697753,138
1357,0.031904681207477706,-0.09391288325051778,-0.20676131737402598,-9.220148739935013,372
792,0.03076017454670789,-0.09465630233079057,-0.14938442269000637,-9.22014853911992,356
1884,-0.0042829127204762445,0.06596473505019751,-0.15532654135173107,-9.085219101697753,136
1767,0.026110715741673816,0.0556551314922797,-0.14620645101063723,-9.088670852040794,261
937,0.0261195962267185,0.05799510633304257,-0.1654314931910733,-9.088671063818499,274
1460,-0.004263473710371946,0.06329356373239209,-0.1784102465521768,-9.085219330950002,142
1869,-0.025211705990641438,-0.11861627753915568,-0.16226047408638236,-9.270867304509295,417
482,0.016644338263737093,0.05328904040461024,-0.1858193021768236,-9.08867129646214,288
570,0.018626871823676477,0.05810888731303693,-0.21880957528071987,-9.088671063818499,276
1800,0.021949224253014713,0.05810889280481775,-0.2061125129960792,-9.088671053026825,263
168,0.03782145204579762,-0.10134577258719918,-0.17163817702271844,-9.220148764447645,382
1036,-0.0042634574012191725,0.06477830370091615,-0.19567158793792627,-9.085219522915871,152
376,0.022050423816554483,0.057814537634338366,-0.19998607588401068,-9.088671070507823,281
1618,0.026157274723907314,0.0530511198296848,-0.18306763475588544,-9.088683314831407,311
1697,0.02687172437168906,-0.10075225889284159,-0.17425674037263225,-9.220149282544762,393
483,0.018626864879220547,0.05810888473420055,-0.2188098057437462,-9.088671303379531,290
807,0.01650604689397921,0.054414448650360825,-0.21961462792789482,-9.088671872330321,301
554,0.019828293362297904,0.05810888445540331,-0.17581817109950504,-9.088671334736508,298
198,0.026733249419339494,-0.10134585766587917,-0.16551225977514794,-9.22014937410548,396
211,0.01982831237626162,0.05810889280481775,-0.1758179163905305,-9.088671053026825,264
450,0.02806849041626113,0.05708553093879843,-0.16165252492542204,-9.08867280245858,303
1435,-0.022209678040463046,-0.12099352305384811,-0.1712724635072948,-9.270866902613776,412
576,-0.004933043611382922,0.06477830668408319,-0.18742264015885327,-9.085219330950002,143
408,-0.0052713805452756606,0.06477830668408319,-0.18661835966893864,-9.085219330950002,144
1565,0.022087606388291003,0.058108885266051166,-0.19194568385676644,-9.088671230264127,285
411,0.026257965826479813,0.057814536490760376,-0.1654317215133722,-9.088671303379531,293
757,0.0328810848259507,-0.0937143226963847,-0.18118600933053602,-9.220148325838725,349
1278,0.02810558216466047,0.057814541628677524,-0.14580388083814574,-9.088671230264127,283
1053,0.018626875245664736,0.0578769019499501,-0.19572625682548428,-9.088671230264127,284
1566,0.020202814643718835,0.0579951037431099,-0.20544708616404783,-9.088671303379531,292
678,-0.022407952370193364,-0.118089563444067,-0.13196546899990794,-9.270866902613776,413
383,0.03194185887440192,-0.10272958196915756,-0.1803821706754387,-9.220148739935013,375
244,0.016603329709403453,0.05328904418329608,-0.2199444624167058,-9.088671230264127,287
1713,0.01733526443217818,0.05493072016792079,-0.2188103256749761,-9.088671872330321,300
69,-0.004263475517201466,0.06824062895001706,-0.14148901972599853,-9.085219330950002,148
785,0.020202803715153286,0.05781453585038629,-0.21961410589150493,-9.088671334736508,297
1359,0.028105671048962836,0.05731744280464096,-0.16165284297657917,-9.088673189800991,304
1654,0.032054299233181434,-0.10075263935612633,-0.1564376959599686,-9.220148968889948,390
479,0.02673324018884021,-0.10134575786972683,-0.16551194274320447,-9.220148968889948,389
124,-0.004736254390121243,0.06814512241876783,-0.14148922444332043,-9.085219522915871,153
579,0.0172339741881869,0.05801456704087445,-0.16543148862638082,-9.088671053026825,267
1934,-0.004893823160758027,0.06814512896426134,-0.16457249001031898,-9.085219309374814,139
1449,-0.004814098412723226,0.06847261097128324,-0.17245135982872578,-9.085219330950002,147
354,-0.00522308134522236,0.06306158033818071,-0.12463070063111231,-9.085219330950002,145
1132,0.026733254187775866,-0.10186183636584531,-0.19526717906781904,-9.22014896450172,388
886,0.02907421568602389,-0.10075264937949058,-0.2001513560968779,-9.220148922595259,387
1813,0.022087694515287144,0.05770405369535547,-0.21171642783484207,-9.08867318997836,307
1558,0.0328811838834171,-0.10000254747585292,-0.1803879779474148,-9.220153846625323,398
1731,-0.022385277603328386,-0.11761148720200515,-0.16744808534964067,-9.270867304509295,419
1054,0.019966677818178118,0.054911399653860146,-0.1769028147554184,-9.088671303379531,295
425,-0.005271361125854483,0.06565453502457094,-0.17760616504569143,-9.085219511104725,150
1425,0.02611968262079583,0.05822680843177986,-0.18851692989288432,-9.088673189800991,306
1893,-0.004794666021192464,0.0688285689813438,-0.13641796827560526,-9.085219101697753,135
416,0.03792274783395655,-0.10086373543285437,-0.19326108084692356,-9.220149282544762,394
420,0.026733254187775866,-0.10075264066297515,-0.18713351961243596,-9.220148720865348,368
1116,-0.022407991144055533,-0.11670571661682533,-0.14144296752758506,-9.270867347893933,422
78,0.02613129391795057,0.05769914806402739,-0.18906223122120586,-9.08940967339052,312
1825,-0.022228887907216055,-0.11868264105160606,-0.16664380485972602,-9.270867304509295,416
620,-0.022607938032266447,-0.11409855905648536,-0.11074688640881142,-9.270867304509295,420
599,0.020240091992751643,0.056570848246987035,-0.18302895572816263,-9.088670852040794,262
1819,-0.005125714458917274,0.0685965698581268,-0.14148902077775066,-9.085219330950002,140
99,-0.004125225380988954,0.06847266967270893,-0.1504056494555022,-9.085219562591318,157
368,-0.022366245357561373,-0.11761159491144099,-0.1587043949788356,-9.270867874975583,427
744,0.018626958217753804,0.05708553093879843,-0.19653199523749226,-9.08867280245858,302
233,0.038899152465650164,-0.09391249550429204,-0.13441385935402958,-9.220149282544762,391
247,0.016607250968788935,0.05787662615160821,-0.1743499246331057,-9.088673189800991,305
1903,-0.02244673843476661,-0.11509502591116733,-0.13236901425682385,-9.270867874975583,426
909,-0.004555493859051195,0.06675588694238117,-0.1421569407979588,-9.085219511104725,151
1911,0.032742795095312534,-0.09371404936030742,-0.1940646419824555,-9.220148788042966,384
857,-0.05285735635492237,0.07152002000038334,-0.12690591193154713,-9.087794118700874,179
324,-0.004263609566242908,0.06824043062276117,-0.14149087816202452,-9.085221513009104,162
1244,-0.004555491728295663,0.06675589192755983,-0.14215676746393485,-9.085219330950002,141
184,-0.00479479528199993,0.06847266967270893,-0.14215691115118204,-9.085219562591318,156
832,-0.022561846683303504,-0.1154531656260397,-0.15792719616110723,-9.27087495095106,431
990,0.026740784910532604,-0.10058482902776532,-0.15406724904892538,-9.220155785892599,400
1990,-0.022289040335780743,-0.11899530607730617,-0.1583950625829077,-9.270867304509295,421
1085,0.031941951932982555,-0.09556268915953267,-0.18547095600650976,-9.220149282544762,392
100,0.018679772648635892,0.06031679544463376,-0.19012900389747445,-9.070330108532753,109
862,0.022087710821701693,0.05810829328093042,-0.1919533201255253,-9.088679437734466,309
1395,0.03795993641810089,-0.1007519857751474,-0.1803879779474148,-9.220153846625323,397
1105,-0.004398062451291223,0.06698765656936022,-0.14215859039742934,-9.085221513009104,160
1394,-0.004814252245960134,0.0681445462191585,-0.1553349112137222,-9.08522822168339,166
1084,-0.02260792628519121,-0.11191220327081194,-0.11034426088924804,-9.270867469760052,423
985,-0.02252876316066499,-0.11179995582705902,-0.14923314587166403,-9.270872904064937,430
67,-0.004283044179555294,0.06740233124395498,-0.1428292304888512,-9.085221900351515,163
808,-0.03581375609546927,-0.12300729706882918,-0.10808628159491776,-9.26945320673369,405
1931,-0.005138807671008563,0.06448974893294163,-0.16385156715927846,-9.085454402773,177
1962,0.01984001293999357,0.05482458740690308,-0.1897645901911733,-9.085106711261595,128
1472,0.02194931527863275,0.05799474779387519,-0.17690947045055194,-9.088678215423986,308
71,-0.05415820508288991,0.06984907474563132,-0.11461875495820037,-9.08779159729153,178
1622,0.05128209483778982,0.08403931701841233,-0.06763768076271702,-8.905153379701675,90
1004,0.028068506179190544,0.05418201310468674,-0.1919533201255253,-9.088679437734466,310
986,0.045770708555760056,-0.14966330605584674,-0.14337955623678972,-9.20911249441184,324
949,0.038861971832948455,-0.09391251736441994,-0.15603572077401423,-9.220149349921869,395
538,0.026172497051677915,0.05610663560811834,-0.1913478310481466,-9.070330108532753,108
1033,0.020581242594593707,0.0747826451805896,0.05806556725124717,-8.81366506993848,79
1185,-0.004536447711781147,0.06329335228216017,-0.18742447357188674,-9.085221513009104,161
1605,-0.0043203586663059625,0.06672552158987942,-0.12436415525109654,-9.08544762931518,173
1916,-0.02254777312713614,-0.11960965098771095,-0.1583952565998601,-9.270867469760052,425
680,-0.004893977044282882,0.06596158526906809,-0.16498288503805286,-9.08522755517889,165
1754,-0.0045556215420559385,0.06306138338387007,-0.17325686102768534,-9.085220893521939,158
1511,-0.004518403258230966,0.06765103627944224,-0.15054383450775885,-9.08544918914709,175
1567,-0.00486906205557808,0.06811550304479554,-0.1554643579357594,-9.08544750450275,172
759,-0.00413090715333194,0.06376072582826037,-0.15209665758842952,-9.081149674781365,126
1652,0.0298170180826067,0.08326352236612332,0.09261520195551447,-8.74128129181799,73
583,0.03275023647081801,-0.09370444121609331,-0.19409178552329043,-9.220155785892599,401
366,0.0319302374521009,-0.09988183245831433,-0.17902075233733827,-9.22017627153483,402
543,-0.004283053763258837,0.06847225008606567,-0.19487420453604268,-9.08522695583285,164
1719,-0.004744973967386215,0.07140618674176313,-0.14005173912502705,-9.066606560402766,107
1852,0.032890537595869254,-0.09391791706300656,-0.2001747739029789,-9.220155785892599,399
1450,-0.054285230574222305,0.07212706351557903,-0.08814357302017162,-9.087794118700874,182
1137,-0.022207150942174528,-0.11901653636393691,-0.11949108110937728,-9.270867469760052,424
1658,-0.022365120604667058,-0.11470406134568246,-0.1323700220948137,-9.270868299223675,428
495,-0.004283044179555219,0.06698766854751258,-0.17760717098302983,-9.085220893521939,159
433,-0.004803111417768024,0.06632354991117953,-0.14865458100834866,-9.066606560402766,106
1666,0.021569669154309693,0.07077565620495464,-0.0038446486123734983,-8.872785903248442,89
350,0.09259396217632285,0.05754444979692512,0.32083252380834704,-8.515923211485783,63
111,-0.004893994856056133,0.06306098991465195,-0.1724601424678045,-9.085228964028733,167
1502,-0.02236707109412804,-0.12069402450847898,-0.15708318013680744,-9.270898438917472,433
141,-0.02242729923280047,-0.11868198523933507,-0.11908958006699967,-9.270868299223675,429
939,-0.02219658094598104,-0.12288388984267318,-0.15724877608439414,-9.27089344324325,432
694,0.049526756451474474,-0.14641679093081922,0.09956116766390377,-8.956992626125905,98
1756,-0.004949519367930776,0.06829713993173583,-0.15054578415041092,-9.08544918914709,176
1831,-0.05332895462358453,0.07199256483968672,-0.13622161303126848,-9.087794118700874,183
1182,-0.015666191469570524,-0.1359230335521488,0.03874038216008012,-9.100600179986769,313
610,-0.052538454034342014,0.07489570591396491,-0.11189751058430952,-9.087794118700874,180
273,-0.039773167866007035,0.08619296710832147,0.17743621743617005,-8.797729563778352,76
275,-0.032808486767726304,-0.1549474239307128,0.07990148499432533,-9.100678616729693,315
1872,-0.0040056810640549875,0.07766470927202593,0.04874013537004889,-8.87053566244317,88
310,-0.03977316786600659,0.06606753802122348,0.0637872346164807,-8.920542318617311,94
1350,-0.07881828316273208,0.07755643352114809,0.1838419771769085,-8.841466010997111,84
307,0.029720178653232975,-0.13447616042231847,0.02239302958974687,-9.07520923736456,125
1284,-0.03666367876468538,-0.13216361124949427,-0.13467056315453266,-9.269458989358482,406
637,-0.009141380305252772,0.08376960471682031,0.10154729730410422,-8.832458095203853,80
1699,-0.03979260247931898,0.06877965926179709,0.03197239365589744,-8.920536333109876,91
270,-0.052391633337197915,-0.11221953430158366,0.03017442443054448,-9.100731063772228,316
888,-0.017783868878744027,-0.14866145858975882,0.03494227265334979,-9.100673656596214,314
231,-0.00480047705434299,0.06636097549840447,-0.17517901185515428,-9.081152022402074,127
1737,0.03609285762799512,-0.09118794972716103,0.17380269305487017,-8.869561624513585,87
987,0.04704254135847115,0.08495429532739517,0.6181235913021891,-8.228486963402439,48
1089,-0.1014521247663684,0.06729978842734774,0.16687294336468206,-8.84503807396995,85
1536,0.06908801161890087,0.06277345385235239,0.1657708949535081,-8.672726549600434,72
746,-0.053674055494791324,0.07440296968019199,-0.0964499463175788,-9.087794118700874,181
439,-0.040941671589606404,0.06122690212857988,0.0637872346164807,-8.920542318617311,93
1568,-0.0644788439124884,0.1325830859016804,0.5985095216624546,-8.309734169616261,52
916,-0.07743179023192757,0.07101566381163968,0.19626899492556685,-8.841466010997111,81
59,0.07527710958326991,-0.11022277349230876,0.16547418989557452,-8.859773182614491,86
973,-0.0376782082347062,-0.13107649198521046,-0.11297556590504376,-9.269449794769768,404
1120,-0.09684069508580151,-0.12248071941173269,0.19943387871615706,-9.047206361732743,102
1530,-0.039123032578308445,0.08910061759270241,0.1620668776750763,-8.797729563778352,78
1874,-0.040001498568068374,0.06578079706314056,0.026418820157524392,-8.920542318617311,92
1091,-0.08025191354510093,0.07403652268755008,0.14113639800251646,-8.841466010997111,82
780,-0.00486906205557808,0.06803017899403997,-0.16366802364415495,-9.085448971508953,174
1674,-0.09499592896371319,0.06203082207752774,0.5508019123559049,-8.473576542689829,59
715,-0.09677937583887114,-0.1265139497764804,0.1638185653461943,-9.047206361732743,103
426,-0.12161556161533484,0.06567866133214244,0.28185528680968264,-8.758784209960531,75
1075,-0.021189595585055978,0.09027733292869411,0.04707056015410147,-8.797729563778352,77
654,-0.17599466939800473,0.05817928443271043,0.5596827003894049,-8.525638913610026,65
1301,-0.07714507602069777,0.11782197861342555,0.5536875830083139,-8.427062655070552,55
70,-0.07666678257963226,0.11820452394075075,0.49851356723101703,-8.439652022974359,58
175,-0.13259744853766858,-0.111807239859576,0.3031158357181077,-8.929096710577635,97
480,-0.08581213733808289,0.1075517949163115,0.48215186995145065,-8.477738024459182,61
706,-0.17633300633189747,0.05889934845072533,0.6006492348333274,-8.525638913610026,64
1818,-0.07597777806530889,0.11187063257662525,0.5126637312190142,-8.439652022974359,57
1419,0.12878789583002037,-0.15020470858128662,0.5926978470035164,-8.41078143399933,54
322,0.07549114040810298,0.08115024581059761,0.6481458655899358,-8.228456774843254,47
1647,-0.11643434189939811,0.06484070295335924,0.29645540140731613,-8.748195202069919,74
1976,-0.07960669109373647,0.07707292342389302,0.1465819238983941,-8.841466010997111,83
73,-0.16369121507041906,0.059580218944716316,0.6011056715254202,-8.503335626434264,62
486,-0.07599721267862128,0.11820452394075075,0.4950897290062808,-8.439652022974359,56
1860,-0.12266053891693479,-0.1265139497764804,0.1847164380848434,-9.05076662086199,104
1728,0.12258381687980231,-0.12134577101586644,0.8167927891639097,-8.179107797356236,41
1385,-0.134491633497483,-0.11788898634282624,0.30667317717801146,-8.929096710577635,96
1407,-0.0520832128360938,-0.15521997331310816,0.08143360159628085,-9.100731063772232,317
196,-0.09561826851872014,-0.1303017911533036,0.12333996078156421,-9.070471483439842,110
1873,-0.15046929213711333,-0.12497185337231917,0.3614858940285879,-8.92886974398391,95
907,-0.08679061351712203,0.10070490991952878,0.7950923062463549,-8.204845870156422,43
56,-0.08493237024470171,0.06479329582085949,0.7548505743877931,-8.251726726944328,49
1833,-0.06778582424678865,0.14002723013346183,0.6405958656853963,-8.309734169616261,51
339,0.06281043553129355,0.07738015924746831,0.5957595928013735,-8.228456774843254,46
32,-0.08956706615665312,0.10026337442463717,0.7470653422312543,-8.204845870156422,44
300,-0.09208952863546692,0.117543953440964,0.8436722608241043,-8.098655791657094,38
1563,-0.13880159754910004,-0.25294572339347376,0.4441017529751996,-8.964311550740605,100
135,-0.010004211229407523,0.1412832407620661,1.2420687316530683,-7.613268053880469,20
316,-0.14099848246903984,-0.2120169519648306,0.3712211135409812,-8.959310196471248,99
2,-0.08872605244608936,0.09778345354470837,0.7938809390189279,-8.204535356730197,42
874,-0.08703318790211184,0.10623433026398206,0.4859974196355189,-8.477738024459182,60
855,-0.11837728618523341,-0.11887256388864881,0.1860586751922362,-9.050778424705582,105
1593,-0.02652646406612507,0.10080261427149528,1.2925884629379694,-7.632224077191427,22
306,-0.09759611166343149,0.05640583669394314,0.8402625894616527,-8.174815672688668,39
1543,-0.15530025945026232,-0.2516607237721017,0.41300336204764476,-8.979600380378685,101
693,-0.15152910802438394,-0.0999473306197884,0.618271904450512,-8.615672217819297,69
1259,-0.08742626296017449,0.10506238719519004,1.069606663218169,-7.902301933377678,34
1414,-0.08835508534070269,0.10782231887082007,1.0819320813774687,-7.891134979085039,30
555,-0.08679421726713982,0.10749530893132755,1.0474208122112265,-7.911606010323304,35
720,-0.1529380967070969,-0.10287053886854854,0.6449501504064303,-8.623426808567102,71
436,-0.09759611166343149,0.06047024699191239,0.8487503153425471,-8.174815672688668,40
1381,-0.12705367390415132,-0.2113005249470377,0.7079480603841828,-8.595594073859806,66
965,-0.15163030140192157,-0.10007760196409639,0.6272279418489697,-8.615672217819297,68
802,-0.08517315569383219,0.09421599784418296,0.7766500578810381,-8.204845870156422,45
1978,-0.028236358776692592,0.06412054270630085,1.4318815055471896,-7.532355637401844,14
1364,-0.08742377158225566,0.10315349579110619,1.090780105592205,-7.900656125260242,33
271,-0.0883356507273903,0.10491917779654188,1.0819320813774687,-7.891134979085039,31
701,-0.026857973206969726,0.09987952821156007,1.2925884629379694,-7.632224077191427,23
1319,-0.12470821910845438,-0.17507025253228614,0.6931096199658494,-8.595594073859806,67
1814,-0.0924458335536321,-0.19710298438679782,0.9551459205982649,-8.308206275931934,50
1769,-0.08679032909219313,0.100250354716828,1.0585649454881367,-7.900656125260242,32
185,-0.09363768095985439,-0.19255225468967535,0.913731132898268,-8.322848726337641,53
382,-0.0975840877807729,-0.18075183699493863,1.1892448089617975,-8.063201141249989,37
1789,-0.13219707922600524,-0.1768053240034897,0.6855112748367487,-8.615688551359266,70
30,-0.02838244857368468,0.09702324347462855,1.2776355275555051,-7.633235260636607,24
532,0.06010508745663046,-0.09722040698633433,1.39295815682306,-7.600039882676814,17
582,-0.044879423677152704,0.06397802149045709,1.3427913141279606,-7.603762513966709,19
590,0.0027293869198475773,0.05821824010246379,1.420359877765235,-7.512813710596245,11
438,-0.026728374896168527,0.067274503252994,1.4278598836306096,-7.53176108822301,13
1471,0.0036002715415548556,0.05813317359279731,1.379716656165681,-7.512813710596245,12
109,-0.09764540702770327,-0.1806929181439283,1.1729082521430705,-8.063201141249989,36
788,-0.027228451941788877,0.061039506014006505,1.399514546494673,-7.532355637401844,15
993,-0.04602646689984393,0.06438257378113225,1.3958526261080153,-7.6029771459509865,18
1608,-0.05742034872210952,-0.11173391462289797,1.37387804689159,-7.761000330171276,28
1006,-0.054554905431769704,-0.1252165531058142,1.4034250787334708,-7.764339149187702,29
552,-5.346426464041161e-05,-0.09295181993961456,1.4764226319942961,-7.623513309012813,21
210,-0.0568170901823426,0.05592308131375611,1.3512090997905162,-7.6455456049149895,25
1838,-0.012593645714129534,0.06004199653318397,1.6417697833337446,-7.289618669446398,8
534,-0.01359652648332696,0.06004199653318397,1.6269236899807367,-7.289618669446398,7
1313,0.003418391434170938,0.054684868413189626,1.3975741924272025,-7.508669053391933,10
173,-0.057844260421822606,-0.11216708475079354,1.3998767146403468,-7.7577693897748485,27
331,-0.012340211937293963,-0.09897698166177192,1.5436262682861233,-7.538201198204915,16
485,-0.04138728252102471,-0.11719455245662234,1.42869993721667,-7.701177743564417,26
607,-0.01793802199918614,-0.10295969800822105,1.6746842241247473,-7.41258500105571,9
123,-0.05674664440288369,0.15262591546660048,4.89740293517866,-3.9612280550182315,3
1623,-0.0623172303734215,-0.24394754010734093,3.114819356141356,-6.198970847333838,6
1766,-0.05805558611774876,-0.2657426056665574,5.033442442258153,-4.258431665314855,5
834,-0.05805558611774876,-0.2671946511569778,5.0415834149030045,-4.258431665314855,4
926,-0.04691200437402136,-0.2586970469807212,9.86756130751003,0.61611435588597,2
429,-0.0367193220525109,-0.2460696208168952,11.051996981686713,1.8066619694839618,1
