,gender,race,X,score,ranking
1710,3.916666666666666,52.67777777777778,-708.2822222222222,-9.44628079199768,471
352,3.927777777777778,63.61555555555556,-759.2944444444445,-9.44628079199768,473
1610,3.872222222222222,63.49333333333334,-729.8900000000001,-9.44628079199768,474
45,3.358888888888888,53.885555555555555,-724.1477777777778,-9.44628079199768,472
752,24.682222222222222,71.29222222222222,-765.7977777777778,-9.40000257107584,437
163,3.358888888888888,53.885555555555555,-724.1477777777778,-9.44628079199768,470
1107,25.801111111111112,73.58666666666667,-761.4255555555555,-9.40000257107584,438
1111,-3.9655555555555555,59.44555555555556,-738.9733333333334,-9.446071848580711,443
1193,4.8244444444444445,59.126666666666665,-718.4788888888888,-9.44628079199768,476
1013,3.358888888888888,52.611111111111114,-743.2611111111111,-9.44628079199768,469
650,4.232222222222222,52.611111111111114,-720.9322222222222,-9.44628079199768,475
819,-3.384444444444445,63.46222222222222,-738.9100000000001,-9.446071848580711,444
1912,-0.4811111111111117,63.49333333333334,-751.2455555555556,-9.44628079199768,477
1063,22.21,-117.1288888888889,-561.5033333333333,-9.580192125468727,499
630,0.07222222222222197,52.7,-702.1233333333333,-9.446071848580711,445
1959,-4.2811111111111115,63.46222222222222,-746.9122222222222,-9.446071848580711,446
1537,0.1399999999999988,53.7988888888889,-713.2444444444445,-9.446071848580711,451
1930,22.21,-106.98888888888888,-577.3688888888889,-9.580192125468727,498
1453,0.4800000000000004,57.13333333333334,-715.3966666666668,-9.446071848580711,452
393,-0.6077777777777778,53.885555555555555,-717.7733333333333,-9.446071848580711,450
1245,-0.34888888888888925,52.7,-736.5966666666667,-9.446071848580711,447
1745,16.53666666666667,-105.09777777777778,-555.2155555555555,-9.579983182051759,478
374,19.784444444444446,-105.09777777777778,-580.48,-9.579983182051759,484
297,-0.6077777777777778,53.885555555555555,-717.7733333333333,-9.446071848580711,448
464,24.682222222222222,87.8888888888889,-759.11,-9.40000257107584,436
1847,19.784444444444446,-116.96666666666667,-593.6777777777778,-9.579983182051759,485
1512,-4.2811111111111115,63.58222222222223,-738.9733333333334,-9.446071848580711,440
1640,20.32,-104.47777777777777,-562.1411111111112,-9.579983182051759,481
332,19.776666666666667,-104.15777777777778,-580.48,-9.579983182051759,482
755,-3.551111111111111,63.46222222222222,-736.5966666666667,-9.446071848580711,441
1922,-10.79222222222222,-147.5911111111111,-505.8077777777778,-9.638749459225188,500
289,19.784444444444446,-105.09777777777778,-580.48,-9.579983182051759,479
544,16.53666666666667,-105.09777777777778,-555.2155555555555,-9.579983182051759,480
974,-3.551111111111111,63.46222222222222,-736.5966666666667,-9.446071848580711,461
1240,20.06111111111111,-117.60444444444445,-579.5977777777778,-9.579983182051759,496
381,-0.7566666666666677,51.486666666666665,-713.2444444444445,-9.446071848580711,455
1966,-0.026666666666667282,53.885555555555555,-705.3055555555555,-9.446071848580711,456
1624,-4.188888888888889,58.05555555555556,-720.2166666666667,-9.446071848580711,457
1615,-0.6077777777777778,52.58,-736.5966666666667,-9.446071848580711,458
931,-3.384444444444445,53.91888888888889,-702.1233333333333,-9.446071848580711,459
938,19.784444444444446,-104.46,-572.4777777777779,-9.579983182051759,495
1333,-0.6077777777777778,52.66666666666667,-730.9711111111111,-9.446071848580711,460
1691,-3.551111111111111,63.46222222222222,-736.5966666666667,-9.446071848580711,466
298,0.07222222222222197,63.46222222222222,-725.7122222222223,-9.446071848580711,465
941,0.07222222222222197,59.14888888888889,-714.5911111111111,-9.446071848580711,467
1273,-3.384444444444445,63.58222222222223,-730.9711111111111,-9.446071848580711,439
679,34.78777777777778,74.29555555555555,-739.9066666666666,-9.399793627658871,435
1440,-4.4477777777777785,63.46222222222222,-744.598888888889,-9.446071848580711,462
1829,0.1644444444444444,52.66666666666667,-710.0622222222222,-9.446071848580711,442
1164,19.525555555555556,-105.09777777777778,-570.8655555555556,-9.579983182051759,483
1027,-0.6077777777777778,52.58,-736.5966666666667,-9.446071848580711,463
651,12.405555555555555,174.23666666666668,182.96666666666664,-9.072066396048108,113
1433,-0.6077777777777778,53.885555555555555,-717.7733333333333,-9.446071848580711,464
494,12.721111111111112,165.66666666666666,175.95333333333332,-9.072066396048108,111
1761,19.86888888888889,-116.77777777777779,-601.6800000000001,-9.579983182051759,489
394,-40.90222222222222,187.0288888888889,17.444444444444443,-9.085305277868239,168
413,16.16777777777778,-104.66666666666666,-559.6811111111111,-9.579983182051759,488
1803,19.784444444444446,-105.09777777777778,-580.48,-9.579983182051759,487
1609,20.43888888888889,-116.77777777777779,-567.6833333333333,-9.579983182051759,493
529,48.257777777777775,161.24444444444444,151.7277777777778,-9.073676701870113,118
1905,-3.873333333333333,57.13333333333334,-736.5966666666667,-9.446071848580711,468
1696,8.69111111111111,161.4311111111111,172.7677777777778,-9.072066396048108,112
1370,20.89,-106.71333333333334,-562.1411111111112,-9.579983182051759,494
614,46.405555555555566,165.67777777777778,145.41666666666669,-9.073676701870113,117
115,48.7988888888889,166.4488888888889,150.18333333333337,-9.073671164750095,116
192,62.16888888888889,-319.5055555555556,-4.092222222222222,-9.199005892124303,320
49,72.74222222222222,-301.04333333333335,-3.6877777777777787,-9.205157011454029,322
730,20.605555555555554,-116.98444444444445,-567.6833333333333,-9.579983182051759,491
342,67.7188888888889,-299.6044444444444,-12.942222222222224,-9.200610445798361,321
303,46.15777777777778,161.4188888888889,145.33666666666667,-9.073676701870113,120
588,-3.551111111111111,53.885555555555555,-702.1233333333333,-9.446071848580711,453
581,11.3,164.42222222222222,153.86555555555555,-9.072066396048108,115
218,-28.32666666666667,132.74444444444444,-34.105555555555554,-9.08866389627772,202
771,3.5722222222222215,128.09,-45.471111111111114,-9.08865124196196,184
1022,45.576666666666675,158.93222222222224,123.4011111111111,-9.073676701870113,123
519,58.85666666666666,-309.85,14.036666666666662,-9.199005892124303,319
361,45.576666666666675,161.4188888888889,141.55,-9.073676701870113,122
220,16.79555555555556,-105.09777777777778,-564.83,-9.579983182051759,497
128,2.98111111111111,126.55222222222221,-33.27666666666667,-9.088657902917419,191
1223,0.07222222222222197,52.7,-702.1233333333333,-9.446071848580711,454
1550,16.16777777777778,-106.90222222222222,-593.6777777777778,-9.579983182051759,492
712,30.220000000000002,72.72999999999999,-727.8266666666667,-9.399793627658871,434
353,49.67888888888889,173.6566666666667,126.7188888888889,-9.073676701870113,124
1378,20.605555555555554,-106.71333333333334,-580.48,-9.579983182051759,490
1293,-3.551111111111111,53.885555555555555,-702.1233333333333,-9.446071848580711,449
29,12.215555555555554,165.64111111111112,182.96666666666664,-9.072066396048108,114
120,0.6288888888888886,135.17333333333335,-46.42777777777778,-9.08865124196196,188
1229,0.1522222222222216,126.99666666666667,-27.484444444444446,-9.08865124196196,189
259,70.05000000000001,-305.0822222222222,-65.56222222222223,-9.205157011454029,323
1592,3.869999999999999,130.7488888888889,-35.33444444444444,-9.088660322793798,197
478,47.361111111111114,169.59111111111113,141.55,-9.073676701870113,119
1258,20.605555555555554,-117.17333333333335,-555.2155555555555,-9.579983182051759,486
1600,61.25333333333333,-318.9911111111111,-16.10222222222222,-9.199005892124303,318
1932,45.32555555555555,169.59111111111113,123.4011111111111,-9.073676701870113,121
906,-82.30333333333333,-346.44555555555553,-59.54666666666667,-9.266311728054983,403
1646,4.161111111111111,128.94,-20.33555555555556,-9.088660090682973,195
265,3.0955555555555545,124.68444444444444,-26.15888888888889,-9.08865124196196,186
1981,53.53666666666666,-255.92666666666668,-78.18444444444444,-9.220146562921064,339
617,-30.36777777777778,128.06333333333333,-28.229999999999997,-9.088668777221942,228
1324,-32.34777777777778,137.17777777777778,-36.218888888888884,-9.088662092478915,199
1659,0.5711111111111107,125.50999999999999,-27.484444444444446,-9.08865124196196,187
1675,52.00555555555556,-251.98444444444445,-88.47666666666667,-9.220142981693492,331
1924,-29.447777777777777,128.17777777777778,-25.876666666666665,-9.088662092478915,200
76,-28.594444444444438,137.00222222222223,-20.165555555555557,-9.088665463046102,210
344,-33.01111111111111,129.2188888888889,-13.373333333333331,-9.088665463046102,209
453,-31.28222222222223,129.39666666666668,-13.695555555555556,-9.088662092478915,201
782,0.4599999999999991,134.72666666666666,-51.147777777777776,-9.088657902917419,190
978,4.938888888888888,135.39333333333335,-25.063333333333333,-9.088660322793798,196
1673,-28.394444444444442,132.74444444444444,-23.46333333333333,-9.08866389627772,203
596,54.70444444444444,-236.98666666666668,-95.89777777777778,-9.220131444779122,326
1541,55.656666666666666,-240.35555555555555,-103.39111111111112,-9.22013822553779,328
526,3.403333333333332,122.7511111111111,-28.625555555555557,-9.088657902917419,192
1788,-29.55444444444444,128.0,-13.373333333333331,-9.088665463046102,211
1729,52.00555555555556,-240.86666666666667,-71.21333333333334,-9.220142981693492,333
674,25.87222222222222,178.16111111111113,-77.09555555555556,-9.085309662803025,169
1937,-27.68333333333334,132.74,-18.70777777777778,-9.088666726014878,213
1041,-31.86555555555556,134.74555555555557,-34.31444444444445,-9.088665463046102,206
1544,22.151111111111113,178.16111111111113,-48.98555555555556,-9.085309662803025,170
879,-0.4288888888888893,129.67777777777778,-46.42777777777778,-9.08865124196196,185
1612,-30.067777777777774,127.33888888888887,-19.132222222222225,-9.088665463046102,207
1178,23.524444444444445,176.7577777777778,-65.19666666666666,-9.08531811596532,171
618,4.161111111111111,124.50666666666666,-23.926666666666662,-9.088660090682973,193
1664,52.72555555555556,-256.1977777777778,-91.09,-9.22014440795191,335
239,-33.907777777777774,137.00222222222223,-40.418888888888894,-9.088665463046102,208
365,-27.927777777777774,136.70666666666668,-24.49888888888889,-9.088666726014878,215
887,-28.264444444444447,128.90777777777777,-24.49888888888889,-9.088666726014878,214
188,-28.394444444444442,137.17777777777778,-17.52111111111111,-9.08866389627772,204
1741,59.56111111111112,-248.75333333333336,-88.91888888888889,-9.220131444779122,325
527,-28.04111111111111,130.28222222222223,-40.33888888888889,-9.088669530467419,236
1134,-69.96555555555555,-338.10555555555555,-115.89999999999999,-9.27085963359408,408
471,53.8588888888889,-246.05777777777777,-71.21333333333334,-9.220142981693492,332
1384,48.70777777777777,-241.01555555555552,-113.04222222222222,-9.220147449229138,344
1474,-28.823333333333334,127.87555555555556,-23.46666666666667,-9.088662092478915,198
1927,-28.25444444444444,126.95111111111112,-25.22777777777778,-9.088667843704572,221
1784,-29.786666666666672,131.43555555555557,-49.263333333333335,-9.088668777221942,229
1950,-87.56444444444445,-349.0855555555556,-88.95444444444443,-9.270851540081377,407
1487,-31.78888888888889,128.90777777777777,-30.365555555555556,-9.088666726014878,217
572,0.12333333333333352,127.96666666666667,-53.089999999999996,-9.088660090682973,194
1562,59.15222222222223,-248.04000000000002,-98.74000000000001,-9.22013822553779,327
51,-32.28111111111111,126.29111111111112,-17.572222222222223,-9.088666726014878,216
254,-28.907777777777778,127.51444444444445,-17.52111111111111,-9.08866389627772,205
44,-29.451111111111107,122.74000000000001,-34.66777777777778,-9.088669530467419,234
1532,-28.25444444444444,131.67777777777778,-20.41444444444444,-9.088667843704572,219
212,48.24333333333333,-240.98888888888888,-96.67888888888889,-9.220146562921064,340
1794,52.72555555555556,-256.1977777777778,-91.09,-9.22014440795191,336
1412,-27.49555555555555,129.3888888888889,-40.034444444444446,-9.088670149279768,242
1080,-30.36777777777778,128.06333333333333,-28.229999999999997,-9.088668777221942,227
240,45.71,-233.4088888888889,-120.81888888888889,-9.220148475211651,354
1798,59.15444444444445,-234.67333333333335,-95.48888888888888,-9.220140960201928,330
1432,-28.93777777777777,124.95555555555558,-37.48888888888889,-9.088670149279768,239
1225,-29.396666666666672,128.93,-15.213333333333335,-9.088667843704572,222
1573,56.202222222222225,-236.2588888888889,-106.01666666666665,-9.220140960201928,329
1323,-32.97555555555555,125.05222222222221,-45.16777777777778,-9.088669530467419,235
1190,49.00666666666667,-240.54444444444448,-94.57111111111111,-9.220145621279475,338
367,-27.287777777777773,136.02,-41.752222222222215,-9.088670110733455,237
905,-27.417777777777776,138.59333333333333,-23.238888888888887,-9.088667843704572,218
1987,-57.397777777777776,-384.96777777777777,-108.56555555555555,-9.270866082206556,411
1518,-29.786666666666672,126.20555555555555,-25.558888888888887,-9.088668777221942,230
968,-36.43666666666667,131.1288888888889,-98.36555555555555,-9.088670648188344,251
281,48.245555555555555,-237.31666666666666,-123.69999999999999,-9.220147965402695,347
1491,73.18555555555555,194.94111111111113,0.4144444444444453,-9.085216055141105,130
829,-28.527777777777775,126.85777777777778,-25.485555555555553,-9.088668741498697,223
398,48.06777777777778,-239.47777777777776,-75.73444444444445,-9.22014440795191,337
1998,-28.09333333333333,130.31222222222223,-26.10333333333333,-9.088665463046102,212
1391,-36.57222222222222,129.01888888888888,-87.98777777777778,-9.088670648188344,253
251,51.43888888888888,-240.37777777777777,-79.22666666666666,-9.220147449229138,342
1242,-31.451111111111118,134.71555555555557,-57.00333333333334,-9.088669530467419,233
1274,-32.74111111111111,134.48000000000002,-63.04555555555555,-9.088670110733455,238
1510,-32.37222222222222,131.29111111111112,-47.907777777777774,-9.088668741498697,224
415,-29.420000000000005,128.37444444444444,-19.632222222222225,-9.088668741498697,226
964,-29.438888888888886,128.0488888888889,-40.516666666666666,-9.088670576212225,244
1173,51.696666666666665,-253.75333333333336,-103.54777777777778,-9.220147449229138,343
203,48.187777777777775,-231.01999999999998,-109.69444444444444,-9.220148591651572,366
787,-28.324444444444442,126.17444444444445,-44.89888888888889,-9.088670149279768,240
445,-27.786666666666665,129.15666666666667,-32.43,-9.088668777221942,231
584,-32.79222222222222,125.85777777777778,-20.663333333333334,-9.088667843704572,220
817,-28.527777777777775,133.30666666666667,-32.68111111111111,-9.088668741498697,225
1326,-35.36555555555555,128.54777777777778,-90.57888888888888,-9.088670621199698,250
930,51.73444444444445,-239.29444444444448,-95.60444444444445,-9.220147370365787,341
1464,48.696666666666665,-239.7211111111111,-88.22444444444444,-9.220147965402695,346
743,-35.55222222222222,121.57555555555555,-103.08888888888887,-9.088671053026825,268
1356,52.43666666666667,-242.5688888888889,-81.49111111111111,-9.220147965402695,345
1555,-53.80333333333334,-370.59444444444443,-117.10999999999999,-9.270866082206556,410
1614,52.598888888888894,-236.0188888888889,-104.76666666666665,-9.220148206422161,348
1078,47.01444444444444,-232.48888888888888,-114.70555555555553,-9.220148475211651,352
162,47.24333333333333,-232.26,-96.54,-9.220148376444063,351
1454,49.59,-240.86666666666667,-89.78666666666666,-9.220142981693492,334
514,-33.41888888888889,128.66444444444446,-76.36777777777777,-9.088670648188344,252
535,74.32777777777778,207.2577777777778,22.503333333333337,-9.085213704340974,129
602,43.20777777777778,-255.39444444444445,-136.73,-9.22014874086207,378
1676,42.66555555555556,-255.39444444444445,-154.26333333333332,-9.22014874086207,376
261,-35.23222222222222,126.16444444444446,-76.74111111111111,-9.088670593484515,249
889,42.66555555555556,-240.28444444444443,-149.48666666666668,-9.22014874086207,377
824,-31.45,122.46222222222224,-55.62555555555556,-9.088670593484515,246
1314,-31.92555555555555,125.86777777777777,-60.80333333333333,-9.088670593484515,248
1493,70.99333333333333,208.77555555555557,-4.565555555555557,-9.085218825324082,132
736,44.85666666666666,-231.27555555555557,-157.85,-9.220148591651572,365
1221,-28.324444444444442,125.9,-43.83888888888889,-9.088670149279768,241
764,50.00333333333334,-228.70222222222225,-108.19777777777777,-9.22014853911992,360
1289,87.32555555555555,192.20111111111112,-68.99888888888889,-9.085219330950002,146
237,41.556666666666665,-220.3,-139.42666666666668,-9.220148739935013,369
351,-33.79222222222222,132.92444444444445,-74.72555555555556,-9.088670576212225,243
1810,51.55,-238.45555555555558,-126.03111111111113,-9.22014853911992,364
1431,-34.62888888888889,129.87666666666667,-74.5588888888889,-9.088670576212225,245
1938,-37.124444444444435,114.07555555555555,-107.22888888888889,-9.088671058433446,270
741,50.53888888888889,-235.06666666666666,-99.70333333333335,-9.220148475211651,353
628,-32.187777777777775,121.79666666666665,-83.09888888888888,-9.088670827699103,258
1465,51.775555555555556,-235.4388888888889,-95.51888888888888,-9.220148325838725,350
1473,-53.408888888888896,-377.5933333333333,-101.6911111111111,-9.27086491916326,409
1335,-41.251111111111115,125.96666666666667,-132.00111111111113,-9.088671063818499,271
1265,-35.21666666666667,131.8777777777778,-112.91222222222223,-9.088671053026825,269
1965,49.587777777777774,-233.57555555555555,-126.45777777777779,-9.220148591651572,367
670,-41.27777777777777,123.01111111111112,-129.70555555555555,-9.088671070507823,279
1307,-42.593333333333334,118.53444444444443,-143.85444444444443,-9.088671079389407,282
194,-36.59444444444444,132.61333333333334,-80.7388888888889,-9.088670593484515,247
63,-32.08333333333333,121.81333333333333,-69.89111111111112,-9.088670648188344,254
1423,-31.473333333333336,127.10555555555555,-30.821111111111108,-9.088669475507833,232
422,-40.02888888888889,117.91666666666666,-109.44333333333333,-9.088671063818499,273
1556,45.504444444444445,-226.76444444444445,-174.41333333333333,-9.220148739935013,374
1118,74.49444444444444,197.4466666666667,15.75222222222222,-9.085216988658475,131
1919,74.42888888888888,201.24444444444447,-32.79888888888889,-9.085219101697753,137
507,78.29666666666667,208.41333333333336,-37.39666666666667,-9.085218857089563,134
613,-41.67666666666666,118.2188888888889,-119.83222222222223,-9.088671070507823,280
427,-35.284444444444446,127.58000000000001,-111.19888888888889,-9.088671063818499,275
1290,41.70111111111111,-234.2288888888889,-180.17555555555555,-9.220148751227653,380
1179,37.68333333333333,-222.00666666666666,-154.69555555555556,-9.220148751227653,381
1739,46.66111111111111,-225.94888888888892,-133.83333333333334,-9.22014853911992,355
593,90.1511111111111,185.86333333333334,-75.18222222222222,-9.085219522915871,154
250,-39.50555555555556,120.45111111111112,-121.31888888888889,-9.0886710697497,277
23,68.80888888888889,210.2477777777778,3.358888888888888,-9.085218825324082,133
530,-32.10777777777778,121.17444444444445,-82.61888888888888,-9.088670827699103,259
1292,41.556666666666665,-221.10000000000002,-158.12555555555556,-9.220148739935013,373
1546,-38.70555555555555,126.54444444444445,-161.68555555555557,-9.08867129646214,289
1100,42.53,-220.1288888888889,-163.46444444444444,-9.220148751227653,379
1196,85.97888888888889,191.3988888888889,-42.873333333333335,-9.085219330950002,149
585,51.13444444444444,-240.86222222222224,-114.07777777777778,-9.22014853911992,358
1233,42.327777777777776,-218.73333333333335,-151.6688888888889,-9.220148739935013,371
305,-44.867777777777775,-375.1277777777778,-165.09333333333333,-9.270867304509295,418
1957,47.23222222222223,-226.52666666666667,-145.09555555555556,-9.22014853911992,362
1621,40.733333333333334,-214.89555555555557,-143.92333333333332,-9.220148739935013,370
944,-40.25888888888889,124.1522222222222,-113.91777777777777,-9.088671053026825,265
1483,45.327777777777776,-225.07333333333332,-121.93,-9.22014853911992,361
1310,90.1511111111111,185.86333333333334,-75.18222222222222,-9.085219522915871,155
1736,-43.20111111111111,126.47555555555556,-167.14555555555555,-9.088671230264127,286
1686,-44.62111111111112,121.35666666666665,-156.66555555555556,-9.088671303379531,294
611,50.461111111111116,-228.99333333333334,-117.22333333333333,-9.22014853911992,363
414,-41.67777777777778,-370.1177777777778,-121.52333333333333,-9.270866953234211,414
1551,-31.461111111111105,124.21111111111111,-70.50777777777778,-9.088670827699103,255
692,-53.724444444444444,114.66333333333333,-193.81444444444443,-9.088671334736508,299
1345,-35.15555555555555,123.88777777777776,-112.43444444444444,-9.088671053026825,266
1272,-43.06111111111111,122.21111111111111,-144.73444444444445,-9.0886710697497,278
462,-54.465555555555554,-365.53999999999996,-119.66888888888887,-9.27086712256621,415
256,42.4211111111111,-240.0188888888889,-176.6688888888889,-9.220148890139278,385
432,-44.867777777777775,122.65333333333334,-163.09444444444446,-9.088671303379531,291
266,-27.784444444444446,127.16777777777776,-100.94888888888889,-9.088670852040794,260
1103,-31.86111111111111,126.21333333333334,-82.58111111111111,-9.088670827699103,256
1782,-49.68666666666667,119.81,-193.52777777777777,-9.088671334736508,296
591,-35.284444444444446,123.14666666666668,-116.54555555555555,-9.088671063818499,272
765,50.461111111111116,-240.86222222222224,-133.19222222222223,-9.22014853911992,359
1897,41.147777777777776,-231.10888888888888,-147.08777777777777,-9.220148764447645,383
1083,-31.86111111111111,119.76444444444445,-74.77888888888889,-9.088670827699103,257
1198,36.54,-226.81666666666666,-196.8677777777778,-9.220148922595259,386
1497,50.221111111111114,-237.30444444444447,-150.2266666666667,-9.22014853911992,357
65,76.65666666666667,190.23444444444448,-29.903333333333336,-9.085219101697753,138
1357,45.08111111111111,-220.3,-134.08,-9.220148739935013,372
792,50.461111111111116,-228.35555555555555,-112.09222222222222,-9.22014853911992,356
1884,79.48777777777778,192.8066666666667,-47.24111111111111,-9.085219101697753,136
1767,-28.681111111111115,135.45111111111112,-129.9188888888889,-9.088670852040794,261
937,-36.69444444444444,118.06333333333333,-117.25,-9.088671063818499,274
1460,85.18555555555555,186.0077777777778,-68.99888888888889,-9.085219330950002,142
1869,-43.12777777777778,-372.2988888888889,-165.74555555555554,-9.270867304509295,417
482,-43.461111111111116,126.54444444444445,-176.4388888888889,-9.08867129646214,288
570,-41.251111111111115,118.06333333333333,-109.44333333333333,-9.088671063818499,276
1800,-40.76111111111111,121.66222222222223,-106.04888888888888,-9.088671053026825,263
168,40.61222222222222,-243.61555555555555,-175.5011111111111,-9.220148764447645,382
1036,94.11999999999999,185.1977777777778,-76.11111111111111,-9.085219522915871,152
376,-40.00888888888888,115.10777777777778,-130.3388888888889,-9.088671070507823,281
1618,-55.54,112.57555555555555,-289.21888888888884,-9.088683314831407,311
1697,37.31555555555556,-208.2688888888889,-228.8422222222222,-9.220149282544762,393
483,-41.127777777777766,116.81666666666666,-156.80777777777777,-9.088671303379531,290
807,-48.162222222222226,114.98888888888891,-211.86333333333332,-9.088671872330321,301
554,-53.14333333333334,114.66333333333333,-185.4488888888889,-9.088671334736508,298
198,33.34,-222.3311111111111,-241.82666666666665,-9.22014937410548,396
211,-36.40777777777778,122.75555555555556,-106.04888888888888,-9.088671053026825,264
450,-50.44111111111111,121.46000000000001,-229.5188888888889,-9.08867280245858,303
1435,-51.49333333333333,-375.2966666666667,-103.89444444444445,-9.270866902613776,412
576,86.65222222222222,189.24666666666667,-49.95888888888889,-9.085219330950002,143
408,83.82111111111111,192.05444444444444,-47.43666666666667,-9.085219330950002,144
1565,-44.93555555555556,121.97111111111113,-161.5077777777778,-9.088671230264127,285
411,-43.79444444444444,126.3088888888889,-162.36777777777777,-9.088671303379531,293
757,53.358888888888885,-237.03555555555556,-100.07111111111111,-9.220148325838725,349
1278,-44.01444444444444,129.04222222222222,-167.8122222222222,-9.088671230264127,283
1053,-39.57222222222222,123.98666666666668,-152.4411111111111,-9.088671230264127,284
1566,-44.92333333333333,115.72333333333333,-161.02777777777777,-9.088671303379531,292
678,-54.28,-385.69666666666666,-103.89444444444445,-9.270866902613776,413
383,42.63444444444445,-225.59111111111113,-158.12555555555556,-9.220148739935013,375
244,-38.84777777777778,119.73000000000002,-147.20333333333335,-9.088671230264127,287
1713,-47.62222222222223,116.76222222222222,-211.41,-9.088671872330321,300
69,84.31,190.8511111111111,-42.91555555555556,-9.085219330950002,148
785,-50.199999999999996,113.36111111111111,-202.28777777777776,-9.088671334736508,297
1359,-52.70444444444445,110.37444444444444,-213.7788888888889,-9.088673189800991,304
1654,38.62555555555555,-221.53666666666666,-201.44222222222223,-9.220148968889948,390
479,34.723333333333336,-223.88777777777779,-187.42999999999998,-9.220148968889948,389
124,90.1511111111111,185.86333333333334,-75.18222222222222,-9.085219522915871,153
579,-39.254444444444445,127.74111111111111,-133.81222222222223,-9.088671053026825,267
1934,82.24333333333334,190.14444444444445,-36.69777777777778,-9.085219309374814,139
1449,85.58888888888889,187.76777777777778,-63.93222222222222,-9.085219330950002,147
354,81.14444444444445,187.76777777777778,-43.385555555555555,-9.085219330950002,145
1132,42.00888888888889,-236.51444444444445,-204.16333333333333,-9.22014896450172,388
886,36.08888888888889,-226.81666666666666,-201.99,-9.220148922595259,387
1813,-48.544444444444444,107.86666666666667,-241.79000000000002,-9.08867318997836,307
1558,30.15444444444444,-223.63777777777779,-289.2133333333333,-9.220153846625323,398
1731,-45.01555555555556,-361.35333333333335,-132.32888888888888,-9.270867304509295,419
1054,-46.86333333333334,125.78999999999999,-175.7266666666667,-9.088671303379531,295
425,96.18222222222222,191.8177777777778,-86.08222222222221,-9.085219511104725,150
1425,-48.35111111111111,109.77666666666667,-217.79333333333335,-9.088673189800991,306
1893,79.65666666666667,190.39000000000001,-45.870000000000005,-9.085219101697753,135
416,37.10888888888889,-207.34444444444443,-227.8677777777778,-9.220149282544762,394
420,48.11999999999999,-230.9666666666667,-129.9688888888889,-9.220148720865348,368
1116,-41.16222222222222,-365.8644444444445,-152.9711111111111,-9.270867347893933,422
78,-56.254444444444445,107.73333333333335,-285.5833333333333,-9.08940967339052,312
1825,-47.69222222222223,-358.5577777777778,-146.05333333333334,-9.270867304509295,416
620,-40.88333333333333,-376.3088888888889,-157.97666666666666,-9.270867304509295,420
599,-24.67777777777778,125.94888888888889,-123.95888888888888,-9.088670852040794,262
1819,81.14444444444445,186.0077777777778,-47.71666666666667,-9.085219330950002,140
99,65.03666666666666,200.00000000000003,-74.47222222222223,-9.085219562591318,157
368,-47.98888888888888,-361.9866666666667,-159.32777777777778,-9.270867874975583,427
744,-52.70444444444445,111.79666666666668,-207.35222222222222,-9.08867280245858,302
233,31.52777777777778,-207.8488888888889,-228.4277777777778,-9.220149282544762,391
247,-49.18,110.37444444444444,-208.47222222222223,-9.088673189800991,305
1903,-50.81999999999999,-377.06111111111113,-169.67555555555555,-9.270867874975583,426
909,89.37555555555555,205.8988888888889,-87.64111111111112,-9.085219511104725,151
1911,39.88999999999999,-200.20222222222225,-187.18444444444447,-9.220148788042966,384
857,-73.04666666666665,183.26333333333332,-14.41,-9.087794118700874,179
324,102.81777777777778,200.11555555555557,-139.9766666666667,-9.085221513009104,162
1244,81.91555555555556,189.36333333333334,-37.937777777777775,-9.085219330950002,141
184,65.69333333333333,191.51111111111112,-76.30555555555554,-9.085219562591318,156
832,-25.566666666666666,-358.00666666666666,-228.4677777777778,-9.27087495095106,431
990,29.025555555555552,-213.10000000000002,-285.0077777777778,-9.220155785892599,400
1990,-46.46777777777778,-357.22777777777776,-148.75555555555556,-9.270867304509295,421
1085,31.52777777777778,-208.9066666666667,-228.19444444444446,-9.220149282544762,392
100,3.7655555555555553,216.98666666666668,138.54555555555558,-9.070330108532753,109
862,-51.52777777777777,112.43444444444444,-239.86666666666667,-9.088679437734466,309
1395,31.792222222222218,-217.91777777777776,-257.8811111111111,-9.220153846625323,397
1105,101.88777777777777,184.56666666666666,-120.90444444444445,-9.085221513009104,160
1394,109.41,181.67111111111112,-148.12333333333333,-9.08522822168339,166
1084,-32.662222222222226,-353.49444444444447,-182.5522222222222,-9.270867469760052,423
985,-20.983333333333334,-352.20222222222225,-221.69333333333333,-9.270872904064937,430
67,103.47777777777779,181.63444444444445,-144.3433333333333,-9.085221900351515,163
808,-89.46000000000001,-348.31333333333333,-48.778888888888886,-9.26945320673369,405
1931,110.14222222222222,179.33666666666667,-189.21,-9.085454402773,177
1962,7.912222222222223,198.62222222222223,116.87777777777777,-9.085106711261595,128
1472,-50.85444444444444,113.97444444444446,-243.51666666666665,-9.088678215423986,308
71,-74.35222222222222,181.71444444444444,17.898888888888884,-9.08779159729153,178
1622,72.6688888888889,177.8188888888889,223.60000000000002,-8.905153379701675,90
1004,-51.252222222222215,109.24111111111111,-252.82777777777778,-9.088679437734466,310
986,73.1288888888889,-343.6588888888889,15.756666666666671,-9.20911249441184,324
949,32.602222222222224,-215.42888888888888,-235.88000000000002,-9.220149349921869,395
538,7.747777777777777,217.44333333333333,162.10111111111112,-9.070330108532753,108
1033,20.013333333333332,104.66666666666666,426.5877777777778,-8.81366506993848,79
1185,104.49777777777778,184.56666666666666,-118.13777777777779,-9.085221513009104,161
1605,105.93777777777777,194.20222222222225,-170.30333333333334,-9.08544762931518,173
1916,-34.808888888888895,-356.1977777777778,-161.7522222222222,-9.270867469760052,425
680,106.74222222222222,191.22222222222223,-164.48555555555555,-9.08522755517889,165
1754,99.53111111111113,177.82000000000002,-109.56555555555555,-9.085220893521939,158
1511,112.24111111111112,179.60222222222222,-163.20333333333332,-9.08544918914709,175
1567,107.74444444444445,178.23444444444445,-162.39444444444445,-9.08544750450275,172
759,21.751111111111108,227.35888888888888,70.4788888888889,-9.081149674781365,126
1652,27.235555555555553,109.82444444444445,508.02,-8.74128129181799,73
583,27.455555555555556,-203.12666666666667,-294.8022222222222,-9.220155785892599,401
366,40.611111111111114,-386.9911111111111,-133.70444444444445,-9.22017627153483,402
543,107.49,197.95333333333335,-157.58555555555554,-9.08522695583285,164
1719,20.662222222222223,256.80444444444447,124.71333333333335,-9.066606560402766,107
1852,28.647777777777776,-211.9977777777778,-293.66555555555556,-9.220155785892599,399
1450,-72.02666666666666,198.45666666666668,-9.64333333333333,-9.087794118700874,182
1137,-34.38111111111112,-371.77666666666664,-179.04333333333332,-9.270867469760052,424
1658,-31.546666666666667,-350.46222222222224,-192.04222222222222,-9.270868299223675,428
495,93.86444444444444,178.91333333333336,-104.22333333333333,-9.085220893521939,159
433,22.756666666666668,254.57555555555558,95.51222222222223,-9.066606560402766,106
1666,16.07,91.3111111111111,353.80333333333334,-8.872785903248442,89
350,49.29222222222222,76.3711111111111,632.6488888888889,-8.515923211485783,63
111,110.97,184.16888888888892,-173.89444444444445,-9.085228964028733,167
1502,-40.2,-467.57666666666665,-137.2477777777778,-9.270898438917472,433
141,-34.501111111111115,-345.91666666666663,-194.46777777777777,-9.270868299223675,429
939,-42.93111111111111,-446.94,-159.85555555555555,-9.27089344324325,432
694,131.21555555555557,-201.68333333333334,513.4655555555555,-8.956992626125905,98
1756,112.36777777777779,190.43555555555557,-194.01666666666665,-9.08544918914709,176
1831,-71.17444444444445,181.85888888888888,-14.41,-9.087794118700874,183
1182,-149.50000000000003,-349.3066666666667,281.19888888888886,-9.100600179986769,313
610,-73.04666666666665,185.83555555555554,-17.594444444444445,-9.087794118700874,180
273,-15.99666666666667,207.3088888888889,416.0522222222222,-8.797729563778352,76
275,-165.57999999999996,-371.9555555555556,322.03222222222223,-9.100678616729693,315
1872,2.754444444444447,174.02666666666667,301.56111111111113,-8.87053566244317,88
310,-26.633333333333333,132.36,309.90555555555557,-8.920542318617311,94
1350,-29.606666666666666,104.33555555555557,492.0477777777778,-8.841466010997111,84
307,114.53333333333333,-209.94,434.17888888888893,-9.07520923736456,125
1284,-92.06777777777778,-346.40222222222224,-69.43888888888888,-9.269458989358482,406
637,-3.3666666666666654,185.23222222222222,346.27,-8.832458095203853,80
1699,-42.45333333333334,168.7288888888889,300.4922222222222,-8.920536333109876,91
270,-174.65666666666667,-319.2166666666667,249.88555555555558,-9.100731063772228,316
888,-152.37888888888887,-354.3,275.04,-9.100673656596214,314
231,19.104444444444447,228.71777777777777,75.0011111111111,-9.081152022402074,127
1737,30.06555555555555,-161.08444444444444,620.2455555555556,-8.869561624513585,87
987,11.563333333333333,77.26666666666667,756.0744444444445,-8.228486963402439,48
1089,-40.42444444444445,94.39222222222222,488.1355555555556,-8.84503807396995,85
1536,46.04222222222222,93.98666666666668,526.318888888889,-8.672726549600434,72
746,-72.37333333333332,186.01555555555555,-9.64333333333333,-9.087794118700874,181
439,-27.207777777777775,132.36,342.96777777777777,-8.920542318617311,93
1568,-15.130000000000004,133.60222222222222,704.5744444444445,-8.309734169616261,52
916,-20.217777777777776,92.74666666666667,496.21333333333337,-8.841466010997111,81
59,94.83000000000003,-161.32444444444445,594.1544444444444,-8.859773182614491,86
973,-90.83666666666667,-347.9488888888889,-43.41444444444444,-9.269449794769768,404
1120,-76.57888888888888,-194.06,625.4444444444445,-9.047206361732743,102
1530,-19.771111111111114,193.04,426.42333333333335,-8.797729563778352,78
1874,-24.050000000000004,120.60555555555555,326.17333333333335,-8.920542318617311,92
1091,-29.502222222222223,97.19999999999999,453.55444444444447,-8.841466010997111,82
780,107.48444444444445,177.07444444444445,-169.70111111111112,-9.085448971508953,174
1674,-23.919999999999998,100.30000000000001,697.21,-8.473576542689829,59
715,-76.57888888888888,-195.9311111111111,644.73,-9.047206361732743,103
426,-35.53888888888889,113.01555555555555,538.5566666666666,-8.758784209960531,75
1075,-10.42888888888889,190.95111111111112,410.59888888888895,-8.797729563778352,77
654,-62.21222222222224,89.37777777777778,701.0344444444445,-8.525638913610026,65
1301,-6.187777777777777,140.51111111111112,659.3377777777778,-8.427062655070552,55
70,-8.824444444444444,125.38,642.6388888888889,-8.439652022974359,58
175,-100.91333333333333,-192.58666666666664,746.2544444444444,-8.929096710577635,97
480,-17.232222222222223,134.33777777777777,653.2366666666667,-8.477738024459182,61
706,-57.29777777777778,93.81111111111112,679.9122222222222,-8.525638913610026,64
1818,-8.824444444444444,124.41333333333333,668.561111111111,-8.439652022974359,57
1419,86.55222222222223,-155.8488888888889,883.8688888888889,-8.41078143399933,54
322,27.855555555555554,84.38222222222223,767.8122222222222,-8.228456774843254,47
1647,-40.64666666666666,109.82222222222222,570.4433333333333,-8.748195202069919,74
1976,-29.502222222222223,99.77222222222221,446.4322222222222,-8.841466010997111,83
73,-52.198888888888895,79.25888888888889,706.0411111111111,-8.503335626434264,62
486,-9.471111111111105,133.3088888888889,665.541111111111,-8.439652022974359,56
1860,-88.32666666666667,-180.45444444444445,693.4355555555555,-9.05076662086199,104
1728,67.01,-146.75555555555556,979.9955555555555,-8.179107797356236,41
1385,-98.49888888888889,-193.28222222222223,732.9977777777777,-8.929096710577635,96
1407,-172.25555555555556,-389.8822222222222,290.6588888888889,-9.100731063772232,317
196,-84.26888888888888,-206.41222222222223,615.6,-9.070471483439842,110
1873,-112.6588888888889,-204.31,740.5533333333334,-8.92886974398391,95
907,-15.853333333333335,97.08444444444444,823.72,-8.204845870156422,43
56,-13.83222222222223,76.89888888888889,809.8466666666666,-8.251726726944328,49
1833,-15.866666666666672,129.93666666666667,730.3944444444444,-8.309734169616261,51
339,26.56111111111111,83.68,757.8922222222222,-8.228456774843254,46
32,-9.848888888888895,113.6288888888889,782.5233333333333,-8.204845870156422,44
300,-10.055555555555555,104.36444444444444,824.2011111111111,-8.098655791657094,38
1563,-105.79666666666667,-262.8466666666667,785.5566666666666,-8.964311550740605,100
135,20.651111111111113,107.3511111111111,983.201111111111,-7.613268053880469,20
316,-99.28222222222222,-241.29333333333335,786.9488888888889,-8.959310196471248,99
2,-15.23333333333333,109.14666666666668,804.3655555555556,-8.204535356730197,42
874,-16.640000000000008,122.97333333333333,637.6455555555556,-8.477738024459182,60
855,-90.4688888888889,-181.59999999999997,677.3344444444444,-9.050778424705582,105
1593,3.5355555555555576,100.46444444444444,976.9033333333334,-7.632224077191427,22
306,-12.44,80.32888888888888,850.7977777777778,-8.174815672688668,39
1543,-111.19444444444444,-256.18,773.288888888889,-8.979600380378685,101
693,-83.47444444444446,-167.27555555555557,940.9333333333334,-8.615672217819297,69
1259,-3.2333333333333307,101.16222222222223,939.6944444444443,-7.902301933377678,34
1414,2.5577777777777744,101.19777777777779,899.1122222222223,-7.891134979085039,30
555,2.8744444444444444,116.25111111111113,897.1344444444444,-7.911606010323304,35
720,-82.49444444444445,-168.02333333333334,944.7744444444443,-8.623426808567102,71
436,-11.723333333333331,95.57555555555555,814.6455555555556,-8.174815672688668,40
1381,-67.45111111111112,-207.6533333333333,974.3466666666667,-8.595594073859806,66
965,-79.97000000000001,-157.02222222222224,923.9511111111112,-8.615672217819297,68
802,-13.353333333333339,99.32666666666665,817.2888888888888,-8.204845870156422,45
1978,13.466666666666665,83.40444444444444,1078.4333333333334,-7.532355637401844,14
1364,-2.692222222222224,97.37333333333333,939.2544444444443,-7.900656125260242,33
271,1.455555555555554,100.31444444444443,921.5788888888889,-7.891134979085039,31
701,7.339999999999998,104.6088888888889,951.6388888888889,-7.632224077191427,23
1319,-71.87666666666667,-195.8188888888889,973.0277777777777,-8.595594073859806,67
1814,-48.373333333333335,-197.64222222222222,1103.8266666666666,-8.308206275931934,50
1769,0.5444444444444425,109.81444444444446,904.8822222222223,-7.900656125260242,32
185,-50.93000000000001,-211.32555555555555,1097.661111111111,-8.322848726337641,53
382,-39.60111111111111,-173.52555555555557,1162.7477777777779,-8.063201141249989,37
1789,-72.1588888888889,-204.30555555555557,956.0944444444444,-8.615688551359266,70
30,9.496666666666668,100.9,965.1122222222223,-7.633235260636607,24
532,35.89888888888889,-134.36,1227.6944444444443,-7.600039882676814,17
582,3.7055555555555575,78.82888888888888,1016.3833333333332,-7.603762513966709,19
590,31.33222222222222,80.62666666666667,1034.5611111111111,-7.512813710596245,11
438,12.952222222222222,82.96777777777777,1035.1033333333332,-7.53176108822301,13
1471,31.33222222222222,80.62666666666667,1034.5611111111111,-7.512813710596245,12
109,-41.92333333333333,-175.43111111111108,1166.2022222222222,-8.063201141249989,36
788,12.793333333333333,94.36666666666667,1044.2511111111112,-7.532355637401844,15
993,3.4933333333333376,79.0911111111111,1035.1966666666667,-7.6029771459509865,18
1608,-28.885555555555555,-153.83777777777777,1225.207777777778,-7.761000330171276,28
1006,-35.616666666666674,-167.29111111111112,1260.4833333333333,-7.764339149187702,29
552,-3.714444444444444,-175.39555555555557,1256.25,-7.623513309012813,21
210,-3.089999999999998,74.47333333333333,1012.7888888888888,-7.6455456049149895,25
1838,19.742222222222225,71.18111111111111,1152.221111111111,-7.289618669446398,8
534,23.586666666666666,72.70888888888888,1130.8566666666666,-7.289618669446398,7
1313,31.796666666666667,84.92777777777778,1035.5188888888888,-7.508669053391933,10
173,-30.95666666666667,-153.38111111111112,1258.3322222222223,-7.7577693897748485,27
331,-10.704444444444446,-158.39555555555555,1346.0255555555555,-7.538201198204915,16
485,-30.120000000000005,-159.67222222222222,1273.45,-7.701177743564417,26
607,-12.550000000000002,-142.49333333333334,1359.7322222222222,-7.41258500105571,9
123,25.63111111111111,69.54222222222222,1173.7944444444443,-3.9612280550182315,3
1623,-12.124444444444444,-140.22333333333333,1422.7611111111112,-6.198970847333838,6
1766,-9.614444444444446,-138.31333333333333,1405.8444444444444,-4.258431665314855,5
834,-10.287777777777778,-135.77222222222224,1427.2533333333333,-4.258431665314855,4
926,-10.182222222222224,-136.26666666666668,1435.698888888889,0.61611435588597,2
429,-11.971111111111108,-151.26888888888888,1422.5777777777778,1.8066619694839618,1
